{"learner":{"attributes":{"scikit_learn":"{\"_estimator_type\": \"classifier\"}"},"feature_names":[],"feature_types":[],"gradient_booster":{"model":{"cats":{"enc":[],"feature_segments":[],"sorted_idx":[]},"gbtree_model_param":{"num_parallel_tree":"1","num_trees":"300"},"iteration_indptr":[0,3,6,9,12,15,18,21,24,27,30,33,36,39,42,45,48,51,54,57,60,63,66,69,72,75,78,81,84,87,90,93,96,99,102,105,108,111,114,117,120,123,126,129,132,135,138,141,144,147,150,153,156,159,162,165,168,171,174,177,180,183,186,189,192,195,198,201,204,207,210,213,216,219,222,225,228,231,234,237,240,243,246,249,252,255,258,261,264,267,270,273,276,279,282,285,288,291,294,297,300],"tree_info":[0,1,2,0,1,2,0,1,2,0,1,2,0,1,2,0,1,2,0,1,2,0,1,2,0,1,2,0,1,2,0,1,2,0,1,2,0,1,2,0,1,2,0,1,2,0,1,2,0,1,2,0,1,2,0,1,2,0,1,2,0,1,2,0,1,2,0,1,2,0,1,2,0,1,2,0,1,2,0,1,2,0,1,2,0,1,2,0,1,2,0,1,2,0,1,2,0,1,2,0,1,2,0,1,2,0,1,2,0,1,2,0,1,2,0,1,2,0,1,2,0,1,2,0,1,2,0,1,2,0,1,2,0,1,2,0,1,2,0,1,2,0,1,2,0,1,2,0,1,2,0,1,2,0,1,2,0,1,2,0,1,2,0,1,2,0,1,2,0,1,2,0,1,2,0,1,2,0,1,2,0,1,2,0,1,2,0,1,2,0,1,2,0,1,2,0,1,2,0,1,2,0,1,2,0,1,2,0,1,2,0,1,2,0,1,2,0,1,2,0,1,2,0,1,2,0,1,2,0,1,2,0,1,2,0,1,2,0,1,2,0,1,2,0,1,2,0,1,2,0,1,2,0,1,2,0,1,2,0,1,2,0,1,2,0,1,2,0,1,2,0,1,2,0,1,2,0,1,2,0,1,2,0,1,2,0,1,2,0,1,2,0,1,2,0,1,2,0,1,2],"trees":[{"base_weights":[-7.437245E-6,8.4179395E-1,-1.5743098E-1,5.4888934E-1,1.034949E0,-1.8745443E-1,7.772732E-1,1.2466747E0,3.2406303E-1,1.3231438E0,7.420614E-1,-1.0334888E-2,-3.1098202E-1,1.078064E0,3.557945E-2,1.3336369E0,3.758627E-2,1.0965394E0,1.88596E-1,5.3066086E-2,1.3613275E0,7.269684E-2,9.0856665E-1,-3.735601E-1,1.8226454E-1,3.826308E-1,-3.2838225E-1,1.1881855E0,-2.1097468E-1,-4.8172298E-1,6.916327E-1,-1.9095594E-2,1.3662268E0,8.474554E-2,-4.5017954E-2,1.0003902E-2,1.2096869E0,7.893275E-1,4.088835E-3,8.474554E-2,-2.9797164E-1,1.3905442E0,3.9342895E-1,8.263984E-1,-4.1512065E-2,7.085878E-1,1.3766702E0,-3.974177E-1,1.283756E-1,1.1599511E-1,6.0729295E-1,8.994951E-1,-4.143916E-1,-3.5457307E-1,2.4434602E-2,1.2127527E0,-1.9095594E-2,8.474554E-2,-6.139793E-2,1.648908E-2,-5.552381E-1,1.2424251E-1,2.8525713E-1,1.4305878E-1,6.923515E-2,1.648908E-2,-1.9095594E-2,6.2134326E-2,1.330438E-1,-2.3238657E-2,1.0143465E-1,-8.458483E-3,8.701939E-2,6.4171827E-3,-4.5017954E-2,2.524056E-2,1.4007775E-1,1.00670695E-1,-7.4961777E-3,-1.9095594E-2,1.13889456E-1,8.961883E-2,-1.0930783E-2,4.9546838E-2,1.3041897E-1,2.524056E-2,1.4183895E-1,7.452827E-4,-4.6111945E-2,6.865576E-3,6.386119E-2,7.753617E-2,-2.5895825E-2,-7.906123E-3,1.1065453E-1,-5.9708085E-2,-4.289805E-3,-4.0380336E-2,-1.7579865E-2,9.247803E-2,-4.607777E-3,-5.2983477E-3,1.23739004E-1,-6.1871465E-2,6.4171827E-3,-3.614837E-2,6.463605E-2],"categories":[],"categories_nodes":[],"categories_segments":[],"categories_sizes":[],"default_left":[0,0,0,0,0,0,0,0,0,0,0,0,0,0,0,0,0,0,0,0,0,0,0,0,0,0,0,0,0,0,0,0,0,0,0,0,0,0,0,0,0,0,0,0,0,0,0,0,0,0,0,0,0,0,0,0,0,0,0,0,0,0,0,0,0,0,0,0,0,0,0,0,0,0,0,0,0,0,0,0,0,0,0,0,0,0,0,0,0,0,0,0,0,0,0,0,0,0,0,0,0,0,0,0,0,0,0],"id":0,"left_children":[1,3,5,7,9,11,13,15,17,19,21,23,25,27,29,31,33,35,37,39,41,43,45,47,49,51,53,55,57,59,61,-1,63,-1,-1,65,67,69,71,-1,73,75,77,79,81,83,85,87,-1,89,91,93,95,97,99,101,-1,-1,-1,-1,103,-1,105,-1,-1,-1,-1,-1,-1,-1,-1,-1,-1,-1,-1,-1,-1,-1,-1,-1,-1,-1,-1,-1,-1,-1,-1,-1,-1,-1,-1,-1,-1,-1,-1,-1,-1,-1,-1,-1,-1,-1,-1,-1,-1,-1,-1],"loss_changes":[5.3753064E2,3.5586426E1,9.604277E1,3.9769714E1,3.1428131E1,7.245303E1,2.37305E1,6.4742355E0,2.0201841E1,9.251434E0,2.1411903E1,9.532867E1,2.3671783E1,1.1005829E1,1.111686E1,3.1356735E0,2.4326818E0,3.5396957E0,1.852206E1,2.1074548E0,4.7298584E0,3.4322581E0,1.3462517E1,1.9179718E1,2.501256E1,2.0231535E1,1.7600357E1,2.6017456E0,3.4261913E0,9.6410227E-1,2.873035E0,0E0,1.4717331E0,0E0,0E0,1.4768526E-1,1.0316544E0,9.263353E0,9.970894E0,0E0,3.2395867E-1,1.7515564E0,2.0466816E0,1.884115E0,2.3377528E0,1.3332798E1,1.7576523E0,1.2028114E1,0E0,1.9046926E1,1.7654701E1,6.076273E0,1.3078785E0,1.5526871E1,8.453902E0,2.2131119E0,0E0,0E0,0E0,0E0,6.9673586E-1,0E0,2.4745715E0,0E0,0E0,0E0,0E0,0E0,0E0,0E0,0E0,0E0,0E0,0E0,0E0,0E0,0E0,0E0,0E0,0E0,0E0,0E0,0E0,0E0,0E0,0E0,0E0,0E0,0E0,0E0,0E0,0E0,0E0,0E0,0E0,0E0,0E0,0E0,0E0,0E0,0E0,0E0,0E0,0E0,0E0,0E0,0E0],"parents":[2147483647,0,0,1,1,2,2,3,3,4,4,5,5,6,6,7,7,8,8,9,9,10,10,11,11,12,12,13,13,14,14,15,15,16,16,17,17,18,18,19,19,20,20,21,21,22,22,23,23,24,24,25,25,26,26,27,27,28,28,29,29,30,30,32,32,35,35,36,36,37,37,38,38,40,40,41,41,42,42,43,43,44,44,45,45,46,46,47,47,49,49,50,50,51,51,52,52,53,53,54,54,55,55,60,60,62,62],"right_children":[2,4,6,8,10,12,14,16,18,20,22,24,26,28,30,32,34,36,38,40,42,44,46,48,50,52,54,56,58,60,62,-1,64,-1,-1,66,68,70,72,-1,74,76,78,80,82,84,86,88,-1,90,92,94,96,98,100,102,-1,-1,-1,-1,104,-1,106,-1,-1,-1,-1,-1,-1,-1,-1,-1,-1,-1,-1,-1,-1,-1,-1,-1,-1,-1,-1,-1,-1,-1,-1,-1,-1,-1,-1,-1,-1,-1,-1,-1,-1,-1,-1,-1,-1,-1,-1,-1,-1,-1,-1],"split_conditions":[1E-1,2E-2,2.64E0,9.66E-1,4E-2,8.5E-1,1.02139264E3,2.6121585E2,1.8359999E1,1.3585E0,1.12585E1,5.6285553E1,-2.1E-2,4.1039997E1,2E0,9.92082E2,8.8E1,2.230363E0,1.0079637E3,8.45E-1,5.3639996E1,7E0,6.546037E1,1.43585005E1,2.8220044E2,3.6719997E1,2.08E0,1.8161278E1,1.9961797E2,6.12E0,8.085E-1,-1.9095594E-2,8.34958E-1,8.474554E-2,-4.5017954E-2,3.7585E0,2.4085E0,1.05E0,8.34958E-1,8.474554E-2,1.0085E0,-9.99635E-1,3E-2,4.965521E0,1.0464075E1,2E0,9.9621295E2,1.9E-1,1.283756E-1,1.4225521E3,9.757976E1,-9.7953504E-1,3.996E1,1.0209592E3,1.0001867E3,4.338783E1,-1.9095594E-2,8.474554E-2,-6.139793E-2,1.648908E-2,7.8728137E0,1.2424251E-1,-6.415E-1,1.4305878E-1,6.923515E-2,1.648908E-2,-1.9095594E-2,6.2134326E-2,1.330438E-1,-2.3238657E-2,1.0143465E-1,-8.458483E-3,8.701939E-2,6.4171827E-3,-4.5017954E-2,2.524056E-2,1.4007775E-1,1.00670695E-1,-7.4961777E-3,-1.9095594E-2,1.13889456E-1,8.961883E-2,-1.0930783E-2,4.9546838E-2,1.3041897E-1,2.524056E-2,1.4183895E-1,7.452827E-4,-4.6111945E-2,6.865576E-3,6.386119E-2,7.753617E-2,-2.5895825E-2,-7.906123E-3,1.1065453E-1,-5.9708085E-2,-4.289805E-3,-4.0380336E-2,-1.7579865E-2,9.247803E-2,-4.607777E-3,-5.2983477E-3,1.23739004E-1,-6.1871465E-2,6.4171827E-3,-3.614837E-2,6.463605E-2],"split_indices":[17,17,17,18,17,17,4,21,16,2,0,1,18,14,5,4,5,11,4,18,16,5,1,2,7,8,17,6,7,6,0,0,9,0,0,2,0,18,9,0,0,10,17,6,21,19,4,17,0,22,1,9,14,4,4,1,0,0,0,0,6,0,2,0,0,0,0,0,0,0,0,0,0,0,0,0,0,0,0,0,0,0,0,0,0,0,0,0,0,0,0,0,0,0,0,0,0,0,0,0,0,0,0,0,0,0,0],"split_type":[0,0,0,0,0,0,0,0,0,0,0,0,0,0,0,0,0,0,0,0,0,0,0,0,0,0,0,0,0,0,0,0,0,0,0,0,0,0,0,0,0,0,0,0,0,0,0,0,0,0,0,0,0,0,0,0,0,0,0,0,0,0,0,0,0,0,0,0,0,0,0,0,0,0,0,0,0,0,0,0,0,0,0,0,0,0,0,0,0,0,0,0,0,0,0,0,0,0,0,0,0,0,0,0,0,0,0],"sum_hessian":[4.0542424E3,6.3804333E2,3.416199E3,2.5507841E2,3.829649E2,3.3106575E3,1.05541595E2,6.105114E1,1.9402728E2,1.9125584E2,1.9170906E2,1.3607026E3,1.9499548E3,7.476674E1,3.0774857E1,5.685864E1,4.1924996E0,2.7890757E1,1.6613652E2,5.6518435E0,1.85604E2,3.8474625E1,1.5323444E2,4.7117303E2,8.895296E2,4.7206512E1,1.9027483E3,6.895428E1,5.812464E0,1.7355585E1,1.34192705E1,1.0882801E0,5.577036E1,1.2987231E0,2.8937767E0,2.7331557E0,2.51576E1,3.8266785E1,1.2786974E2,1.2987231E0,4.3531203E0,1.7974171E2,5.8622866E0,4.242322E0,3.4232304E1,1.0912768E2,4.4106762E1,4.6523602E2,5.93702E0,7.706453E2,1.1888427E2,2.8558151E1,1.8648363E1,1.7712568E3,1.314915E2,6.7866E1,1.0882801E0,1.2987231E0,4.513741E0,1.6448758E0,1.571071E1,4.8238287E0,8.595442E0,4.9883163E1,5.8871975E0,1.6448758E0,1.0882801E0,5.330602E0,1.9827E1,6.9007444E0,3.136604E1,1.1681256E2,1.10571785E1,1.4593438E0,2.8937767E0,1.8304076E0,1.779113E2,2.0408506E0,3.821436E0,1.0882801E0,3.1540418E0,1.484255E0,3.2748047E1,8.171878E1,2.7408894E1,1.8304076E0,4.2276356E1,6.336823E1,4.018678E2,7.0767456E2,6.2970776E1,9.9654396E1,1.922987E1,5.0952477E0,2.3462902E1,1.2093771E1,6.5545917E0,1.3878239E3,3.834329E2,8.670176E0,1.2282133E2,1.2738119E0,6.6592186E1,1.4251367E1,1.4593438E0,3.0793085E0,5.516134E0],"tree_param":{"num_deleted":"0","num_feature":"23","num_nodes":"107","size_leaf_vector":"1"}},{"base_weights":[4.1851895E-6,-5.926676E-1,1.5827824E-1,-3.844115E-1,-7.0099205E-1,4.499697E-1,1.9199548E-2,5.7741606E-1,-4.5546854E-1,-2.687318E-1,-7.485129E-2,6.0033315E-1,2.8775346E-1,-4.82742E-1,2.1253319E-1,-6.632208E-2,1.3533549E-1,-1.5298153E-2,-6.1397743E-1,5.285428E-1,-7.2952464E-2,2.9929599E-2,6.6839606E-1,-4.2231625E-1,3.779307E-1,1.1594413E-1,-5.3864634E-1,2.8558758E-1,-6.056252E-1,-4.9812984E-1,4.9337885E-1,-6.5528E-1,6.3514763E-1,-6.537196E-2,1.1183122E0,-4.693587E-1,7.255604E-1,2.2364736E-1,7.4799424E-1,1.2895688E-1,-7.345663E-2,1.5642945E-1,6.526103E-1,1.2674712E-1,-2.821458E-1,-6.3890874E-1,-2.5260493E-1,2.1858402E-2,4.6845973E-1,-2.3270406E-1,-7.420018E-2,1.12758555E-1,-7.2808884E-2,-1.7329166E-2,1.009431E-1,-7.455922E-2,-6.0937344E-3,1.1977738E-1,-5.0131857E-2,-4.8501782E-2,1.3836311E-1,5.992783E-2,-7.2347894E-2,1.2188315E-1,-6.45592E-2,6.070102E-2,-4.1065045E-2,6.615882E-2,1.14585094E-1,-4.502288E-2,3.5803765E-2,8.0409616E-2,-3.7819557E-2,-4.796592E-2,1.1977738E-1,-3.3965494E-2,-7.474863E-2,2.5202585E-2,-4.17666E-2,-7.371601E-2,1.0505339E-2,-5.713439E-2,5.3851724E-2,5.5351865E-2,-7.169123E-2],"categories":[],"categories_nodes":[],"categories_segments":[],"categories_sizes":[],"default_left":[0,0,0,0,0,0,0,0,0,0,0,0,0,0,0,0,0,0,0,0,0,0,0,0,0,0,0,0,0,0,0,0,0,0,0,0,0,0,0,0,0,0,0,0,0,0,0,0,0,0,0,0,0,0,0,0,0,0,0,0,0,0,0,0,0,0,0,0,0,0,0,0,0,0,0,0,0,0,0,0,0,0,0,0,0],"id":1,"left_children":[1,3,5,7,9,11,13,15,17,19,-1,21,23,25,27,-1,-1,29,31,33,-1,35,37,39,41,43,45,47,49,51,53,55,57,-1,59,61,63,65,67,-1,-1,69,71,-1,73,75,77,79,81,83,-1,-1,-1,-1,-1,-1,-1,-1,-1,-1,-1,-1,-1,-1,-1,-1,-1,-1,-1,-1,-1,-1,-1,-1,-1,-1,-1,-1,-1,-1,-1,-1,-1,-1,-1],"loss_changes":[3.8049112E2,1.9016693E1,1.2986182E2,2.040688E1,1.1326111E1,2.5036469E1,2.1056477E2,2.0841469E1,1.9179176E1,2.1378494E1,0E0,2.0767487E1,3.211736E1,2.0256775E1,9.379673E1,0E0,0E0,1.838168E1,1.0847137E1,1.5728802E1,0E0,2.0529106E1,1.6765549E1,3.1262438E1,2.6873768E1,2.435676E1,1.5670029E1,6.937536E1,6.373802E0,1.5169578E1,1.2718792E1,1.0485962E1,5.062869E0,0E0,6.932703E0,9.787808E0,1.7479576E1,1.8252441E1,1.3174194E1,0E0,0E0,3.0342108E1,3.116195E1,0E0,1.2185296E1,1.3005936E1,1.2176875E1,3.7343483E1,6.219232E1,1.4073338E1,0E0,0E0,0E0,0E0,0E0,0E0,0E0,0E0,0E0,0E0,0E0,0E0,0E0,0E0,0E0,0E0,0E0,0E0,0E0,0E0,0E0,0E0,0E0,0E0,0E0,0E0,0E0,0E0,0E0,0E0,0E0,0E0,0E0,0E0,0E0],"parents":[2147483647,0,0,1,1,2,2,3,3,4,4,5,5,6,6,7,7,8,8,9,9,11,11,12,12,13,13,14,14,17,17,18,18,19,19,21,21,22,22,23,23,24,24,25,25,26,26,27,27,28,28,29,29,30,30,31,31,32,32,34,34,35,35,36,36,37,37,38,38,41,41,42,42,44,44,45,45,46,46,47,47,48,48,49,49],"right_children":[2,4,6,8,10,12,14,16,18,20,-1,22,24,26,28,-1,-1,30,32,34,-1,36,38,40,42,44,46,48,50,52,54,56,58,-1,60,62,64,66,68,-1,-1,70,72,-1,74,76,78,80,82,84,-1,-1,-1,-1,-1,-1,-1,-1,-1,-1,-1,-1,-1,-1,-1,-1,-1,-1,-1,-1,-1,-1,-1,-1,-1,-1,-1,-1,-1,-1,-1,-1,-1,-1,-1],"split_conditions":[2.3E-1,6.519355E1,6.708805E1,-2.1915E0,1E0,6.83E-1,8.4E-1,8.492857E-1,-5.021344E-1,-9.391223E-1,-7.485129E-2,-9.615236E-1,4.5E-1,3.9708092E0,2.39E0,-6.632208E-2,1.3533549E-1,1.0541682E3,6.492698E1,1.3158501E1,-7.2952464E-2,1E-1,1E0,-2.7914999E0,1.016082E3,-9.780365E-1,7E-1,8.98E-1,-1.6415E0,1.0495713E0,6.0561543E1,1.9E-1,1.1908501E1,-6.537196E-2,1.016082E3,1.00396735E3,1.5126983E1,5.5E-1,1.42E0,1.2895688E-1,-7.345663E-2,1.24585E1,4.5585E0,1.2674712E-1,9.964418E1,7.737171E1,2.8E1,-9.842714E-1,1.00044965E3,-2.0601E-1,-7.420018E-2,1.12758555E-1,-7.2808884E-2,-1.7329166E-2,1.009431E-1,-7.455922E-2,-6.0937344E-3,1.1977738E-1,-5.0131857E-2,-4.8501782E-2,1.3836311E-1,5.992783E-2,-7.2347894E-2,1.2188315E-1,-6.45592E-2,6.070102E-2,-4.1065045E-2,6.615882E-2,1.14585094E-1,-4.502288E-2,3.5803765E-2,8.0409616E-2,-3.7819557E-2,-4.796592E-2,1.1977738E-1,-3.3965494E-2,-7.474863E-2,2.5202585E-2,-4.17666E-2,-7.371601E-2,1.0505339E-2,-5.713439E-2,5.3851724E-2,5.5351865E-2,-7.169123E-2],"split_indices":[17,1,1,2,5,18,17,9,10,10,0,9,17,13,17,0,0,22,1,0,0,3,5,2,4,9,17,18,2,6,1,17,0,0,4,4,13,17,17,0,0,0,2,0,1,1,5,9,4,10,0,0,0,0,0,0,0,0,0,0,0,0,0,0,0,0,0,0,0,0,0,0,0,0,0,0,0,0,0,0,0,0,0,0,0],"split_type":[0,0,0,0,0,0,0,0,0,0,0,0,0,0,0,0,0,0,0,0,0,0,0,0,0,0,0,0,0,0,0,0,0,0,0,0,0,0,0,0,0,0,0,0,0,0,0,0,0,0,0,0,0,0,0,0,0,0,0,0,0,0,0,0,0,0,0,0,0,0,0,0,0,0,0,0,0,0,0,0,0,0,0,0,0],"sum_hessian":[4.054211E3,8.539125E2,3.2002983E3,2.9374E2,5.601725E2,1.0325284E3,2.16777E3,1.9717524E1,2.7402246E2,5.6142464E1,5.0403003E2,5.344389E2,4.980895E2,6.023708E2,1.5653992E3,7.6428127E0,1.2074712E1,7.284168E1,2.0118079E2,2.0509468E1,3.5632996E1,5.7126625E1,4.773123E2,5.571303E1,4.4237646E2,5.135287E1,5.510179E2,1.4376781E3,1.27721146E2,3.7380844E1,3.5460835E1,1.952018E2,5.9789844E0,6.789893E0,1.3719575E1,3.3446037E1,2.3680584E1,7.30365E1,4.042758E2,8.111651E0,4.7601383E1,2.4576303E2,1.9661343E2,1.2631303E1,3.872157E1,4.0709167E2,1.4392622E2,5.8915186E2,8.485262E2,3.492507E1,9.2796074E1,4.148591E0,3.3232254E1,1.5762275E1,1.9698559E1,1.6923201E2,2.5969791E1,3.9630604E0,2.0159237E0,1.8303933E0,1.1889181E1,6.1645145E0,2.7281525E1,1.7497105E1,6.1834803E0,4.554974E1,2.7486757E1,3.3432938E2,6.99464E1,6.099377E1,1.8476927E2,1.7161331E2,2.500013E1,3.4758507E1,3.9630604E0,1.0947967E2,2.97612E2,3.534409E1,1.0858213E2,5.742074E1,5.3173114E2,5.310966E1,7.954165E2,1.3256681E1,2.1668392E1],"tree_param":{"num_deleted":"0","num_feature":"23","num_nodes":"85","size_leaf_vector":"1"}},{"base_weights":[3.2788769E-6,-1.4925943E-1,1.1512342E-1,-2.3681213E-1,8.893417E-2,2.4117155E-1,-7.2383314E-2,-1.913954E-1,-4.308554E-1,1.5430212E-1,-4.3127775E-1,4.111828E-1,6.678463E-2,-1.6469602E-1,1.7915605E-1,-1.1083384E-2,-2.4869663E-1,-5.5202657E-1,-2.0729046E-2,8.4199595E-1,1.11364E-1,-5.539706E-1,2.2914837E-1,2.619705E-2,5.028758E-1,6.088927E-1,4.9801897E-3,-5.6072974E-1,-7.709967E-2,1.1596689E0,1.189629E-1,-4.442493E-1,1.09806806E-1,4.4690967E-1,-2.6720047E-1,-3.9800552E-1,-6.993465E-1,-4.765589E-1,5.653789E-1,1.2221391E0,-3.4060863E-1,1.2950651E-1,8.9039445E-2,1.7236973E-1,-6.3278204E-1,7.517227E-1,-5.6945074E-2,-2.3474172E-1,7.62259E-1,4.3016338E-1,9.1237783E-1,-4.2842963E-1,7.4451655E-1,-4.3587234E-2,4.5204926E-1,-5.9119165E-1,7.649639E-2,6.293562E-2,-2.999314E-1,1.2479366E-1,3.0153846E-2,-2.2669838E-1,2.6823238E-1,8.5893594E-2,-5.086723E-2,3.274686E-2,-1.8906515E-2,9.952196E-2,-2.6500836E-2,-4.348526E-2,-1.6895028E-2,-5.8911135E-4,-5.807165E-2,5.818068E-2,-7.203862E-2,-5.8809E-2,5.3909075E-2,1.0476589E-1,-2.7073717E-2,1.337177E-1,1.7216377E-2,5.818068E-2,-6.1853934E-2,-3.4997962E-2,1.6412819E-2,-5.301798E-2,9.653371E-2,-6.797595E-2,3.8086575E-2,-3.9508432E-2,1.1002459E-1,-7.2681785E-2,5.8408914E-5,-5.9078373E-2,9.3923576E-2,6.684924E-2,3.3647045E-2,-6.024095E-2,9.977753E-2,5.818068E-2,-6.507987E-2,-3.3653565E-2,8.6121134E-2,2.8307184E-3,-4.197035E-2,7.015397E-2,-4.0799778E-2,-7.0038825E-2,-1.2191079E-2,3.7851103E-2,-1.5441793E-2,7.5834885E-2,-3.8738985E-2,9.4310105E-2,-3.3767E-2,5.7908505E-2,-6.106674E-3],"categories":[],"categories_nodes":[],"categories_segments":[],"categories_sizes":[],"default_left":[0,0,0,0,0,0,0,0,0,0,0,0,0,0,0,0,0,0,0,0,0,0,0,0,0,0,0,0,0,0,0,0,0,0,0,0,0,0,0,0,0,0,0,0,0,0,0,0,0,0,0,0,0,0,0,0,0,0,0,0,0,0,0,0,0,0,0,0,0,0,0,0,0,0,0,0,0,0,0,0,0,0,0,0,0,0,0,0,0,0,0,0,0,0,0,0,0,0,0,0,0,0,0,0,0,0,0,0,0,0,0,0,0,0,0,0,0],"id":2,"left_children":[1,3,5,7,9,11,13,15,17,19,21,23,25,27,29,31,33,35,37,39,41,43,45,47,49,51,53,55,57,59,61,63,65,67,69,71,73,75,77,79,81,-1,83,85,87,89,-1,91,93,95,97,99,101,103,105,107,-1,109,111,-1,-1,113,115,-1,-1,-1,-1,-1,-1,-1,-1,-1,-1,-1,-1,-1,-1,-1,-1,-1,-1,-1,-1,-1,-1,-1,-1,-1,-1,-1,-1,-1,-1,-1,-1,-1,-1,-1,-1,-1,-1,-1,-1,-1,-1,-1,-1,-1,-1,-1,-1,-1,-1,-1,-1,-1,-1],"loss_changes":[6.96985E1,3.6854176E1,5.4141724E1,1.1301552E1,1.6233887E1,4.058011E1,2.1423496E1,1.08310585E1,1.212418E1,1.2399681E1,4.448759E0,2.4462097E1,2.2690594E1,2.335658E1,1.4489023E1,1.3344912E1,1.0360512E1,3.9980316E0,1.5426475E1,1.1526039E1,1.0438772E1,2.7006578E0,4.210599E0,2.5997498E1,1.6279541E1,1.006982E1,1.3243298E1,5.3794403E0,1.7290707E1,7.007885E-1,1.2165924E1,5.104748E0,1.3027685E1,8.457543E0,1.2703056E1,6.763937E0,2.9800873E0,3.9935122E0,1.0476385E1,2.0549679E0,2.1014924E0,0E0,1.3015126E1,3.4183984E0,2.21389E0,2.7967234E0,0E0,1.1581069E1,9.035877E0,1.0434822E1,1.14073105E1,2.3215432E0,8.068512E0,1.4891056E1,1.3110333E1,6.0554123E0,0E0,2.342949E1,2.0080265E1,0E0,0E0,9.57419E0,1.6854782E1,0E0,0E0,0E0,0E0,0E0,0E0,0E0,0E0,0E0,0E0,0E0,0E0,0E0,0E0,0E0,0E0,0E0,0E0,0E0,0E0,0E0,0E0,0E0,0E0,0E0,0E0,0E0,0E0,0E0,0E0,0E0,0E0,0E0,0E0,0E0,0E0,0E0,0E0,0E0,0E0,0E0,0E0,0E0,0E0,0E0,0E0,0E0,0E0,0E0,0E0,0E0,0E0,0E0,0E0],"parents":[2147483647,0,0,1,1,2,2,3,3,4,4,5,5,6,6,7,7,8,8,9,9,10,10,11,11,12,12,13,13,14,14,15,15,16,16,17,17,18,18,19,19,20,20,21,21,22,22,23,23,24,24,25,25,26,26,27,27,28,28,29,29,30,30,31,31,32,32,33,33,34,34,35,35,36,36,37,37,38,38,39,39,40,40,42,42,43,43,44,44,45,45,47,47,48,48,49,49,50,50,51,51,52,52,53,53,54,54,55,55,57,57,58,58,61,61,62,62],"right_children":[2,4,6,8,10,12,14,16,18,20,22,24,26,28,30,32,34,36,38,40,42,44,46,48,50,52,54,56,58,60,62,64,66,68,70,72,74,76,78,80,82,-1,84,86,88,90,-1,92,94,96,98,100,102,104,106,108,-1,110,112,-1,-1,114,116,-1,-1,-1,-1,-1,-1,-1,-1,-1,-1,-1,-1,-1,-1,-1,-1,-1,-1,-1,-1,-1,-1,-1,-1,-1,-1,-1,-1,-1,-1,-1,-1,-1,-1,-1,-1,-1,-1,-1,-1,-1,-1,-1,-1,-1,-1,-1,-1,-1,-1,-1,-1,-1,-1],"split_conditions":[7.6E1,2.988E1,1.08585005E1,1.0974828E3,1.18085E1,1.38E0,1.6368418E1,4.4E-1,1.01546027E3,1.1394745E1,1.7176563E1,4E-2,-9.842714E-1,7E-2,1.6502378E1,1.54800005E1,1.9386592E0,9.92E-1,2.0880001E1,5.3E1,-3.5915E0,2.2620924E2,1.836872E1,1.713E0,1.0267793E3,4.5519806E1,3.816E1,1.0247815E3,2.9000908E-1,1.321E0,5.0084996E0,-9.9901384E-1,5.4389554E-1,6.585E-1,6.335587E0,8E0,9.9549677E2,1.0210699E3,2.5666074E2,2.3810216E2,3.4197453E1,1.2950651E-1,2.0507553E2,6.8E1,2.6508501E1,1.6368418E1,-5.6945074E-2,8.84E-1,1.872E1,1.0043959E3,-3.5414999E0,8.04127E1,1.00044965E3,3E-1,3.2884917E-1,1.549E0,7.649639E-2,7.098449E1,4.1325405E1,1.2479366E-1,3.0153846E-2,1.6635155E1,1.0072763E3,8.5893594E-2,-5.086723E-2,3.274686E-2,-1.8906515E-2,9.952196E-2,-2.6500836E-2,-4.348526E-2,-1.6895028E-2,-5.8911135E-4,-5.807165E-2,5.818068E-2,-7.203862E-2,-5.8809E-2,5.3909075E-2,1.0476589E-1,-2.7073717E-2,1.337177E-1,1.7216377E-2,5.818068E-2,-6.1853934E-2,-3.4997962E-2,1.6412819E-2,-5.301798E-2,9.653371E-2,-6.797595E-2,3.8086575E-2,-3.9508432E-2,1.1002459E-1,-7.2681785E-2,5.8408914E-5,-5.9078373E-2,9.3923576E-2,6.684924E-2,3.3647045E-2,-6.024095E-2,9.977753E-2,5.818068E-2,-6.507987E-2,-3.3653565E-2,8.6121134E-2,2.8307184E-3,-4.197035E-2,7.015397E-2,-4.0799778E-2,-7.0038825E-2,-1.2191079E-2,3.7851103E-2,-1.5441793E-2,7.5834885E-2,-3.8738985E-2,9.4310105E-2,-3.3767E-2,5.7908505E-2,-6.106674E-3],"split_indices":[5,8,0,22,2,17,12,17,4,11,6,17,9,17,12,8,6,18,16,5,0,21,12,18,4,22,15,4,10,18,2,10,9,2,13,5,4,4,7,21,1,0,22,5,0,12,0,18,15,4,2,1,4,3,10,18,0,1,7,0,0,6,22,0,0,0,0,0,0,0,0,0,0,0,0,0,0,0,0,0,0,0,0,0,0,0,0,0,0,0,0,0,0,0,0,0,0,0,0,0,0,0,0,0,0,0,0,0,0,0,0,0,0,0,0,0,0],"split_type":[0,0,0,0,0,0,0,0,0,0,0,0,0,0,0,0,0,0,0,0,0,0,0,0,0,0,0,0,0,0,0,0,0,0,0,0,0,0,0,0,0,0,0,0,0,0,0,0,0,0,0,0,0,0,0,0,0,0,0,0,0,0,0,0,0,0,0,0,0,0,0,0,0,0,0,0,0,0,0,0,0,0,0,0,0,0,0,0,0,0,0,0,0,0,0,0,0,0,0,0,0,0,0,0,0,0,0,0,0,0,0,0,0,0,0,0,0],"sum_hessian":[4.0542131E3,1.7651957E3,2.2890176E3,1.2907582E3,4.744375E2,1.3686681E3,9.203494E2,1.0475586E3,2.431996E2,4.2210117E2,5.2336323E1,6.923411E2,6.7632697E2,6.7351917E2,2.4683028E2,2.5291006E2,7.946485E2,1.8746683E2,5.573277E1,2.3712584E1,3.983886E2,4.427262E1,8.0637E0,1.3342471E2,5.5891644E2,6.830944E1,6.080175E2,1.2101126E2,5.525079E2,1.3219888E1,2.3361038E2,5.459914E1,1.9831093E2,1.999082E1,7.746577E2,9.345866E1,9.400817E1,3.145578E1,2.4276987E1,1.7919127E1,5.793457E0,6.3191924E0,3.920694E2,4.2173805E0,4.005524E1,4.909681E0,3.1540189E0,9.9007126E1,3.4417587E1,4.7637952E2,8.253692E1,7.6487627E0,6.066068E1,5.4925195E2,5.8765575E1,1.1883472E2,2.1765447E0,3.3972827E2,2.1277963E2,1.1575024E1,1.6448638E0,7.0299675E1,1.6331071E2,1.9910141E0,5.2608128E1,1.1468947E2,8.362146E1,1.10682535E1,8.922565E0,2.8496805E2,4.8968964E2,3.0034378E1,6.342428E1,1.0882723E0,9.29199E1,2.8722645E1,2.7331362E0,1.5235812E1,9.041174E0,1.5903202E1,2.015925E0,1.0882723E0,4.705185E0,5.6729557E1,3.3533984E2,2.411897E0,1.8054836E0,3.859591E1,1.4593334E0,1.1131831E0,3.7964976E0,3.135466E1,6.7652466E1,3.7106106E0,3.0706978E1,1.3269783E2,3.436817E2,4.0816717E0,7.845525E1,1.0882723E0,6.56049E0,5.7265353E0,5.4934143E1,4.618872E2,8.736475E1,4.5694416E1,1.3071158E1,9.60033E1,2.283141E1,1.382548E2,2.0147345E2,1.5656695E1,1.9712292E2,5.4413614E0,6.4858315E1,8.361812E1,7.96926E1],"tree_param":{"num_deleted":"0","num_feature":"23","num_nodes":"117","size_leaf_vector":"1"}},{"base_weights":[4.264043E-5,7.411693E-1,-1.4960591E-1,4.929673E-1,8.950267E-1,-1.7825982E-1,7.0227957E-1,1.09882E0,2.910398E-1,-5.3488323E-3,9.7384495E-1,-2.2007348E-1,2.7110445E-1,9.659686E-1,2.7412456E-2,1.1715418E0,3.3383727E-2,9.7350144E-1,1.6734804E-1,-1.3202223E-1,1.03579365E-1,1.1991805E0,7.410217E-1,-3.684642E-1,-1.4561746E-1,5.248401E-1,2.6601285E-2,1.0604205E0,-2.0112374E-1,-4.6823362E-1,6.317177E-1,-1.9107198E-2,1.1994495E0,7.95487E-2,-4.3973267E-2,-7.190979E-3,1.0729046E0,7.0838344E-1,-3.6609983E-3,7.0846444E-1,-2.7851397E-1,1.2236625E0,3.6502826E-1,-1.9253418E-1,7.9569125E-1,5.2392863E-2,-4.0132415E-1,1.2492235E-1,-2.52113E-1,2.1595675E-1,1.0613695E0,-2.882733E-1,4.1392314E-1,1.0827127E0,-2.0463213E-2,8.03988E-2,-5.9852507E-2,-9.6567445E-2,-6.168305E-1,8.94424E-1,-4.4212505E-2,6.1735924E-2,1.2570313E-1,1.5127595E-2,-2.0413745E-2,1.2617804E-1,6.981633E-2,-2.3916902E-2,9.1085516E-2,-1.7887644E-2,3.858662E-2,1.01832926E-1,-2.0250857E-2,-5.8981277E-2,-1.6406955E-3,5.1768227E-3,1.232658E-1,9.303094E-2,-7.708171E-3,-4.7559213E-2,8.874516E-2,4.6085514E-2,9.737604E-2,-4.2538468E-2,5.3050287E-2,2.2814792E-2,-4.3107633E-2,4.7514727E-3,5.0541252E-2,-6.1752377E-3,-3.507648E-2,3.1751134E-3,7.741922E-2,1.2354982E-1,-2.4503085E-3,-3.7959512E-2,6.837878E-2,6.10017E-2,-2.3296341E-2,-5.0268886E-3,1.10372834E-1,8.947513E-2,-5.827138E-2,-5.128195E-3,-6.750222E-2,-1.97079E-2,1.0395812E-1,7.532527E-2,-4.6655566E-2],"categories":[],"categories_nodes":[],"categories_segments":[],"categories_sizes":[],"default_left":[0,0,0,0,0,0,0,0,0,0,0,0,0,0,0,0,0,0,0,0,0,0,0,0,0,0,0,0,0,0,0,0,0,0,0,0,0,0,0,0,0,0,0,0,0,0,0,0,0,0,0,0,0,0,0,0,0,0,0,0,0,0,0,0,0,0,0,0,0,0,0,0,0,0,0,0,0,0,0,0,0,0,0,0,0,0,0,0,0,0,0,0,0,0,0,0,0,0,0,0,0,0,0,0,0,0,0,0,0],"id":3,"left_children":[1,3,5,7,9,11,13,15,17,19,21,23,25,27,29,31,33,35,37,39,-1,41,43,45,47,49,51,53,55,57,59,-1,61,-1,-1,63,65,67,69,71,73,75,77,79,81,83,85,87,89,91,93,95,97,99,-1,-1,-1,101,103,105,107,-1,-1,-1,-1,-1,-1,-1,-1,-1,-1,-1,-1,-1,-1,-1,-1,-1,-1,-1,-1,-1,-1,-1,-1,-1,-1,-1,-1,-1,-1,-1,-1,-1,-1,-1,-1,-1,-1,-1,-1,-1,-1,-1,-1,-1,-1,-1,-1],"loss_changes":[4.4916464E2,2.5540527E1,8.237403E1,3.1804478E1,2.97247E1,6.1325775E1,1.9521923E1,5.0188293E0,1.6576982E1,4.713656E0,1.9313995E1,3.2911133E1,1.7234463E1,8.917175E0,9.848078E0,2.5519028E0,2.2248662E0,2.9536037E0,1.5646743E1,4.1159205E0,0E0,3.5165405E0,9.952881E0,1.3798004E1,5.7320072E1,2.2372868E1,1.7515593E1,2.286026E0,3.1782532E0,9.3981767E-1,2.666953E0,0E0,1.2347336E0,0E0,0E0,1.4868055E-1,1.0616035E0,8.009716E0,8.905637E0,1.6193073E0,2.2602882E0,1.9192505E0,1.8107708E0,3.915405E0,1.0377968E1,1.6908888E1,1.740654E1,1.6537449E1,2.677848E1,9.004831E0,9.403801E0,7.2962713E0,8.307862E0,1.7721634E0,0E0,0E0,0E0,3.5835483E0,3.847065E-1,1.9005394E0,2.0671535E0,0E0,0E0,0E0,0E0,0E0,0E0,0E0,0E0,0E0,0E0,0E0,0E0,0E0,0E0,0E0,0E0,0E0,0E0,0E0,0E0,0E0,0E0,0E0,0E0,0E0,0E0,0E0,0E0,0E0,0E0,0E0,0E0,0E0,0E0,0E0,0E0,0E0,0E0,0E0,0E0,0E0,0E0,0E0,0E0,0E0,0E0,0E0,0E0],"parents":[2147483647,0,0,1,1,2,2,3,3,4,4,5,5,6,6,7,7,8,8,9,9,10,10,11,11,12,12,13,13,14,14,15,15,16,16,17,17,18,18,19,19,21,21,22,22,23,23,24,24,25,25,26,26,27,27,28,28,29,29,30,30,32,32,35,35,36,36,37,37,38,38,39,39,40,40,41,41,42,42,43,43,44,44,45,45,46,46,47,47,48,48,49,49,50,50,51,51,52,52,53,53,57,57,58,58,59,59,60,60],"right_children":[2,4,6,8,10,12,14,16,18,20,22,24,26,28,30,32,34,36,38,40,-1,42,44,46,48,50,52,54,56,58,60,-1,62,-1,-1,64,66,68,70,72,74,76,78,80,82,84,86,88,90,92,94,96,98,100,-1,-1,-1,102,104,106,108,-1,-1,-1,-1,-1,-1,-1,-1,-1,-1,-1,-1,-1,-1,-1,-1,-1,-1,-1,-1,-1,-1,-1,-1,-1,-1,-1,-1,-1,-1,-1,-1,-1,-1,-1,-1,-1,-1,-1,-1,-1,-1,-1,-1,-1,-1,-1,-1],"split_conditions":[1.1E-1,2E-2,2.64E0,9.66E-1,4.5935944E2,1.2207102E3,1.02139264E3,2.6121585E2,1.8359999E1,5.2409667E-1,4E-2,6.6507835E1,6.1E-1,4.1039997E1,2E0,9.92082E2,8.8E1,2.230363E0,1.0079637E3,8.476285E0,1.03579365E-1,5.3639996E1,-9.941446E-1,1.6199999E1,8.4E-1,8.66E-1,7.9783936E1,1.790428E1,1.9961797E2,3.71E0,3.5782917E1,-1.9107198E-2,1.04420815E2,7.95487E-2,-4.3973267E-2,2.0319861E2,1.584E1,1.05E0,3E0,1.368E0,-9.9149996E-1,2.585E-1,3E-2,3.1319998E1,6.8085E0,3.3092597E0,1.7E-1,2.7E2,8.12E-1,1.57085E1,3.996E1,1.014568E3,4E-1,4.338783E1,-2.0463213E-2,8.03988E-2,-5.9852507E-2,8.430364E1,5.7534394E0,1.0215422E3,1.153265E1,6.1735924E-2,1.2570313E-1,1.5127595E-2,-2.0413745E-2,1.2617804E-1,6.981633E-2,-2.3916902E-2,9.1085516E-2,-1.7887644E-2,3.858662E-2,1.01832926E-1,-2.0250857E-2,-5.8981277E-2,-1.6406955E-3,5.1768227E-3,1.232658E-1,9.303094E-2,-7.708171E-3,-4.7559213E-2,8.874516E-2,4.6085514E-2,9.737604E-2,-4.2538468E-2,5.3050287E-2,2.2814792E-2,-4.3107633E-2,4.7514727E-3,5.0541252E-2,-6.1752377E-3,-3.507648E-2,3.1751134E-3,7.741922E-2,1.2354982E-1,-2.4503085E-3,-3.7959512E-2,6.837878E-2,6.10017E-2,-2.3296341E-2,-5.0268886E-3,1.10372834E-1,8.947513E-2,-5.827138E-2,-5.128195E-3,-6.750222E-2,-1.97079E-2,1.0395812E-1,7.532527E-2,-4.6655566E-2],"split_indices":[17,17,17,18,22,22,4,21,16,10,17,1,17,14,5,4,5,11,4,21,0,16,10,8,17,18,1,11,7,17,21,0,7,0,0,7,16,18,19,18,2,2,17,15,2,6,17,7,18,2,14,4,3,1,0,0,0,1,11,4,6,0,0,0,0,0,0,0,0,0,0,0,0,0,0,0,0,0,0,0,0,0,0,0,0,0,0,0,0,0,0,0,0,0,0,0,0,0,0,0,0,0,0,0,0,0,0,0,0],"split_type":[0,0,0,0,0,0,0,0,0,0,0,0,0,0,0,0,0,0,0,0,0,0,0,0,0,0,0,0,0,0,0,0,0,0,0,0,0,0,0,0,0,0,0,0,0,0,0,0,0,0,0,0,0,0,0,0,0,0,0,0,0,0,0,0,0,0,0,0,0,0,0,0,0,0,0,0,0,0,0,0,0,0,0,0,0,0,0,0,0,0,0,0,0,0,0,0,0,0,0,0,0,0,0,0,0,0,0,0,0],"sum_hessian":[4.0478655E3,6.7936975E2,3.3684956E3,2.6158542E2,4.177843E2,3.2596455E3,1.0885021E2,6.428036E1,1.9730507E2,3.3703766E1,3.8408054E2,2.9826208E3,2.7702472E2,7.795839E1,3.089182E1,6.007999E1,4.2003717E0,2.9219248E1,1.6808582E2,3.0826385E1,2.8773806E0,1.930696E2,1.9101096E2,9.952135E2,1.9874072E3,1.3538304E2,1.4164168E2,7.22062E1,5.752192E0,1.7095448E1,1.3796373E1,1.0884651E0,5.8991524E1,1.3478527E0,2.852519E0,2.7744746E0,2.6444775E1,3.9613846E1,1.2847197E2,4.0060024E0,2.6820383E1,1.8711102E2,5.9585705E0,1.04274025E1,1.8058354E2,7.20342E1,9.231793E2,5.613045E2,1.4261028E3,8.6809044E1,4.8574E1,7.8268654E1,6.337303E1,7.109749E1,1.108709E0,1.3399818E0,4.4122105E0,5.354014E0,1.1741434E1,9.702255E0,4.094118E0,6.3654037E0,5.262612E1,1.665929E0,1.1085455E0,1.6008934E1,1.0435839E1,6.9424486E0,3.26714E1,8.898562E1,3.9486343E1,2.9012895E0,1.1047132E0,1.168824E1,1.5132143E1,1.4768047E0,1.8563422E2,2.1303983E0,3.8281724E0,8.7053995E0,1.7220031E0,6.3940216E1,1.1664333E2,3.6084785E1,3.5949413E1,4.136407E1,8.8181525E2,4.6735068E2,9.395381E1,4.873422E2,9.3876056E2,6.606568E1,2.0743366E1,4.1742462E1,6.8315396E0,7.21042E1,6.1644497E0,4.8674953E1,1.469808E1,1.2694205E0,6.9828064E1,1.485131E0,3.868883E0,1.2709244E0,1.04705105E1,1.0968492E0,8.605406E0,1.1462564E0,2.9478617E0],"tree_param":{"num_deleted":"0","num_feature":"23","num_nodes":"109","size_leaf_vector":"1"}},{"base_weights":[-3.8666307E-4,-5.6701845E-1,1.4513807E-1,-3.6247158E-1,-6.749791E-1,4.1015804E-1,1.641069E-2,5.4900354E-1,-4.3234867E-1,-2.4940981E-1,-7.226829E-2,5.4806787E-1,2.6001394E-1,-4.6123496E-1,1.944528E-1,-6.3984625E-2,1.24221615E-1,-7.957723E-3,-5.890301E-1,4.930141E-1,-7.025886E-2,2.6549274E-2,6.0868376E-1,-4.1115466E-1,3.4267765E-1,-1.8650122E-1,-5.785752E-1,2.853147E-1,-3.7134036E-1,-4.751333E-1,4.6497527E-1,-6.3010377E-1,5.891966E-1,-6.307275E-2,1.0169494E0,-4.559172E-1,6.7535836E-1,1.9897826E-1,6.809286E-1,1.15890406E-1,-7.177764E-2,1.3825226E-1,5.920494E-1,5.9191895E-1,-3.6492756E-1,6.419876E-1,-5.982374E-1,-3.385685E-2,4.1070506E-1,-7.243726E-2,3.0945364E-2,1.03753865E-1,-7.042415E-2,-1.5903255E-2,9.273692E-2,-7.2261974E-2,-4.508067E-3,1.0908208E-1,-4.836973E-2,-4.6670664E-2,1.2468598E-1,-7.0922785E-2,5.5162724E-2,1.1149625E-1,-6.2577076E-2,4.3709274E-2,-6.974309E-2,6.0441643E-2,1.02709986E-1,-6.7464286E-3,6.876167E-2,7.284405E-2,-3.7146967E-2,1.2906653E-1,-6.797046E-2,4.236268E-2,-4.5888644E-2,1.2481711E-1,-4.9724236E-2,-6.95393E-2,-3.5401657E-2,-3.0522129E-2,3.2941412E-2,-5.7281572E-2,4.7192562E-2,7.831321E-2,-3.525E-2],"categories":[],"categories_nodes":[],"categories_segments":[],"categories_sizes":[],"default_left":[0,0,0,0,0,0,0,0,0,0,0,0,0,0,0,0,0,0,0,0,0,0,0,0,0,0,0,0,0,0,0,0,0,0,0,0,0,0,0,0,0,0,0,0,0,0,0,0,0,0,0,0,0,0,0,0,0,0,0,0,0,0,0,0,0,0,0,0,0,0,0,0,0,0,0,0,0,0,0,0,0,0,0,0,0,0,0],"id":4,"left_children":[1,3,5,7,9,11,13,15,17,19,-1,21,23,25,27,-1,-1,29,31,33,-1,35,37,39,41,43,45,47,49,51,53,55,57,-1,59,61,63,65,67,-1,-1,69,71,73,75,77,79,81,83,-1,85,-1,-1,-1,-1,-1,-1,-1,-1,-1,-1,-1,-1,-1,-1,-1,-1,-1,-1,-1,-1,-1,-1,-1,-1,-1,-1,-1,-1,-1,-1,-1,-1,-1,-1,-1,-1],"loss_changes":[3.34004E2,1.8033539E1,1.0994174E2,1.858702E1,1.0794662E1,2.1673706E1,1.8464977E2,1.8064327E1,1.7825626E1,1.9193398E1,0E0,1.7315994E1,2.8232647E1,1.8899033E1,8.141719E1,0E0,0E0,1.6419949E1,9.848312E0,1.3488491E1,0E0,1.8505966E1,1.4401703E1,2.7780207E1,2.2927082E1,2.492882E1,1.0287567E1,5.4577133E1,3.1165815E1,1.3684594E1,1.0805988E1,1.0235672E1,4.356085E0,0E0,5.78878E0,9.053156E0,1.5109716E1,1.6320845E1,1.04266815E1,0E0,0E0,2.8224257E1,2.6950363E1,3.069727E1,1.0965057E1,5.4717264E0,9.402344E0,3.8099293E1,5.921141E1,0E0,3.011445E1,0E0,0E0,0E0,0E0,0E0,0E0,0E0,0E0,0E0,0E0,0E0,0E0,0E0,0E0,0E0,0E0,0E0,0E0,0E0,0E0,0E0,0E0,0E0,0E0,0E0,0E0,0E0,0E0,0E0,0E0,0E0,0E0,0E0,0E0,0E0,0E0],"parents":[2147483647,0,0,1,1,2,2,3,3,4,4,5,5,6,6,7,7,8,8,9,9,11,11,12,12,13,13,14,14,17,17,18,18,19,19,21,21,22,22,23,23,24,24,25,25,26,26,27,27,28,28,29,29,30,30,31,31,32,32,34,34,35,35,36,36,37,37,38,38,41,41,42,42,43,43,44,44,45,45,46,46,47,47,48,48,50,50],"right_children":[2,4,6,8,10,12,14,16,18,20,-1,22,24,26,28,-1,-1,30,32,34,-1,36,38,40,42,44,46,48,50,52,54,56,58,-1,60,62,64,66,68,-1,-1,70,72,74,76,78,80,82,84,-1,86,-1,-1,-1,-1,-1,-1,-1,-1,-1,-1,-1,-1,-1,-1,-1,-1,-1,-1,-1,-1,-1,-1,-1,-1,-1,-1,-1,-1,-1,-1,-1,-1,-1,-1,-1,-1],"split_conditions":[2.3E-1,6.519355E1,6.708805E1,-2.1915E0,1E0,6.83E-1,8.4E-1,8.492857E-1,-5.021344E-1,-9.391223E-1,-7.226829E-2,-9.615236E-1,4.5E-1,7.914737E1,2.06E0,-6.3984625E-2,1.24221615E-1,1.0541682E3,6.492698E1,1.3158501E1,-7.025886E-2,1E-1,1E0,-2.7914999E0,1.016082E3,6.2062144E0,2.4E-1,7.32E-1,1.0217498E3,1.0495713E0,6.0561543E1,1.0210699E3,1.1908501E1,-6.307275E-2,1.016082E3,1.7698677E1,1.5126983E1,1.35E0,1.42E0,1.15890406E-1,-7.177764E-2,9.0585E0,4.5585E0,-9.74008E-1,2.03E-1,1.4512063E0,7E-1,2.844E1,1.00044965E3,-7.243726E-2,1.02297125E3,1.03753865E-1,-7.042415E-2,-1.5903255E-2,9.273692E-2,-7.2261974E-2,-4.508067E-3,1.0908208E-1,-4.836973E-2,-4.6670664E-2,1.2468598E-1,-7.0922785E-2,5.5162724E-2,1.1149625E-1,-6.2577076E-2,4.3709274E-2,-6.974309E-2,6.0441643E-2,1.02709986E-1,-6.7464286E-3,6.876167E-2,7.284405E-2,-3.7146967E-2,1.2906653E-1,-6.797046E-2,4.236268E-2,-4.5888644E-2,1.2481711E-1,-4.9724236E-2,-6.95393E-2,-3.5401657E-2,-3.0522129E-2,3.2941412E-2,-5.7281572E-2,4.7192562E-2,7.831321E-2,-3.525E-2],"split_indices":[17,1,1,2,5,18,17,9,10,10,0,9,17,1,17,0,0,22,1,0,0,3,5,2,4,13,17,18,4,6,1,4,0,0,4,6,13,17,17,0,0,2,2,9,18,6,17,8,4,0,4,0,0,0,0,0,0,0,0,0,0,0,0,0,0,0,0,0,0,0,0,0,0,0,0,0,0,0,0,0,0,0,0,0,0,0,0],"split_type":[0,0,0,0,0,0,0,0,0,0,0,0,0,0,0,0,0,0,0,0,0,0,0,0,0,0,0,0,0,0,0,0,0,0,0,0,0,0,0,0,0,0,0,0,0,0,0,0,0,0,0,0,0,0,0,0,0,0,0,0,0,0,0,0,0,0,0,0,0,0,0,0,0,0,0,0,0,0,0,0,0,0,0,0,0,0,0],"sum_hessian":[4.0485515E3,8.2670435E2,3.2218472E3,2.8710345E2,5.396009E2,1.0526002E3,2.169247E3,1.9954937E1,2.671485E2,5.5017143E1,4.8458377E2,5.472717E2,5.0532846E2,5.8859436E2,1.5806527E3,7.378278E0,1.2576658E1,7.231775E1,1.9483076E2,2.0820267E1,3.4196877E1,5.7135445E1,4.9013626E2,5.497752E1,4.5035095E2,1.7693E2,4.116644E2,1.3623636E3,2.182891E2,3.6377975E1,3.593977E1,1.8871718E2,6.1135874E0,6.5557036E0,1.4264564E1,3.2938824E1,2.4196619E1,7.4034676E1,4.161016E2,8.528369E0,4.644915E1,2.4833218E2,2.0201875E2,3.256058E1,1.4436942E2,6.0246267E0,4.0563977E2,3.8446567E2,9.7789795E2,1.1583533E2,1.02453766E2,4.3209023E0,3.2057076E1,1.5575909E1,2.0363863E1,1.6274533E2,2.597185E1,4.15448E0,1.9591076E0,1.7756969E0,1.2488867E1,2.6557884E1,6.3809395E0,1.8192963E1,6.003658E0,5.890109E1,1.5133587E1,3.430298E2,7.307179E1,1.8131403E2,6.701816E1,1.7718176E2,2.4837002E1,2.1004055E1,1.1556525E1,1.4997075E1,1.2937233E2,3.8698535E0,2.1547732E0,2.8887323E2,1.16766525E2,2.2016306E2,1.6430263E2,5.681391E1,9.2108405E2,3.424149E1,6.821228E1],"tree_param":{"num_deleted":"0","num_feature":"23","num_nodes":"87","size_leaf_vector":"1"}},{"base_weights":[3.439162E-4,5.442807E-2,-2.791871E-1,-1.04645416E-1,1.5990533E-1,-3.6799893E-1,-5.0391607E-2,-1.9352913E-1,9.814165E-2,2.6937672E-1,8.657329E-4,4.040636E-1,-4.0133512E-1,1.824858E-1,-5.264777E-1,-4.0211087E-1,-1.4923953E-1,2.434399E-4,4.0228164E-1,2.2266321E-1,6.165064E-1,-5.5818517E-2,4.710667E-1,8.764185E-1,-4.0002432E-1,8.4403425E-1,-4.1942078E-1,-1.2653543E-1,8.49628E-1,-5.870882E-1,6.947546E-2,1.7393166E-1,-5.1193744E-1,-7.001826E-2,-2.9340464E-1,3.8300097E-1,-8.592498E-2,5.831588E-1,-1.18131645E-1,1.6084515E-1,5.132418E-1,2.7175156E-2,6.7467785E-1,1.5618226E-2,-4.320376E-1,7.0815593E-1,-2.6654574E-1,-5.6212097E-3,1.1140745E0,-6.303995E-2,3.9353292E-2,-4.130913E-2,1.2067663E-1,-4.830449E-1,-1.1332451E-1,-4.3860808E-1,2.7135533E-1,-5.4447927E-2,9.6828717E-1,3.7237647E-1,-6.508135E-1,7.6042436E-2,-3.0208964E-2,-5.3801168E-2,7.130908E-2,-1.3320145E-2,3.157298E-2,-6.028372E-2,-1.7108293E-2,7.244055E-2,-2.3750326E-2,1.059913E-1,-1.23211695E-2,7.389675E-2,-4.7016013E-2,4.3703105E-2,-5.6843113E-2,-6.8691485E-3,2.3444382E-2,6.3199624E-2,-8.836931E-3,-6.578223E-2,8.442276E-2,5.920685E-2,1.1398965E-1,-1.4404833E-2,2.217604E-2,7.000593E-2,-5.033837E-2,-5.6111566E-3,9.173732E-2,-5.4313805E-2,1.5539318E-2,5.7631027E-2,-4.6284676E-2,2.424105E-2,1.2734494E-1,-5.056575E-2,5.4970037E-2,-3.9837502E-2,2.5068346E-2,-5.490244E-2,7.757253E-2,-6.616868E-2,5.8114737E-2,1.23760834E-1,2.3014564E-2,-4.4368353E-2,9.571319E-2,2.3526464E-2,-6.854228E-2],"categories":[],"categories_nodes":[],"categories_segments":[],"categories_sizes":[],"default_left":[0,0,0,0,0,0,0,0,0,0,0,0,0,0,0,0,0,0,0,0,0,0,0,0,0,0,0,0,0,0,0,0,0,0,0,0,0,0,0,0,0,0,0,0,0,0,0,0,0,0,0,0,0,0,0,0,0,0,0,0,0,0,0,0,0,0,0,0,0,0,0,0,0,0,0,0,0,0,0,0,0,0,0,0,0,0,0,0,0,0,0,0,0,0,0,0,0,0,0,0,0,0,0,0,0,0,0,0,0,0,0],"id":5,"left_children":[1,3,5,7,9,11,13,15,17,19,21,23,25,27,29,31,33,35,37,39,41,43,45,47,49,51,53,55,57,59,-1,61,63,65,67,69,71,73,75,77,79,81,83,85,87,89,91,93,95,-1,-1,-1,-1,97,99,101,103,-1,105,107,109,-1,-1,-1,-1,-1,-1,-1,-1,-1,-1,-1,-1,-1,-1,-1,-1,-1,-1,-1,-1,-1,-1,-1,-1,-1,-1,-1,-1,-1,-1,-1,-1,-1,-1,-1,-1,-1,-1,-1,-1,-1,-1,-1,-1,-1,-1,-1,-1,-1,-1],"loss_changes":[6.1258526E1,5.698155E1,1.3329239E1,2.442834E1,3.554889E1,1.2337212E1,2.0589514E1,8.641098E0,1.2307379E1,1.9473701E1,2.2240484E1,7.976533E0,1.057885E1,2.5850609E1,4.9211273E0,1.0488337E1,8.870708E0,1.0379239E1,9.543421E0,1.9093082E1,4.879898E0,2.0020857E1,1.5888184E1,2.7232676E0,1.7319278E0,3.6130943E0,8.672752E0,1.0823769E1,7.0877438E0,3.8272762E0,0E0,7.7865744E0,4.801491E0,1.2319376E1,1.0334986E1,1.2422459E1,1.1105332E1,1.2633295E1,6.946127E0,1.4911177E1,1.3402126E1,8.322691E0,4.321224E0,2.066295E1,9.9537525E0,1.0958038E1,2.717625E0,1.2634706E0,1.1104383E0,0E0,0E0,0E0,0E0,8.935196E0,8.237296E0,6.9553633E0,1.1516487E1,0E0,7.0523987E0,2.4707656E0,1.8584862E0,0E0,0E0,0E0,0E0,0E0,0E0,0E0,0E0,0E0,0E0,0E0,0E0,0E0,0E0,0E0,0E0,0E0,0E0,0E0,0E0,0E0,0E0,0E0,0E0,0E0,0E0,0E0,0E0,0E0,0E0,0E0,0E0,0E0,0E0,0E0,0E0,0E0,0E0,0E0,0E0,0E0,0E0,0E0,0E0,0E0,0E0,0E0,0E0,0E0,0E0],"parents":[2147483647,0,0,1,1,2,2,3,3,4,4,5,5,6,6,7,7,8,8,9,9,10,10,11,11,12,12,13,13,14,14,15,15,16,16,17,17,18,18,19,19,20,20,21,21,22,22,23,23,24,24,25,25,26,26,27,27,28,28,29,29,31,31,32,32,33,33,34,34,35,35,36,36,37,37,38,38,39,39,40,40,41,41,42,42,43,43,44,44,45,45,46,46,47,47,48,48,53,53,54,54,55,55,56,56,58,58,59,59,60,60],"right_children":[2,4,6,8,10,12,14,16,18,20,22,24,26,28,30,32,34,36,38,40,42,44,46,48,50,52,54,56,58,60,-1,62,64,66,68,70,72,74,76,78,80,82,84,86,88,90,92,94,96,-1,-1,-1,-1,98,100,102,104,-1,106,108,110,-1,-1,-1,-1,-1,-1,-1,-1,-1,-1,-1,-1,-1,-1,-1,-1,-1,-1,-1,-1,-1,-1,-1,-1,-1,-1,-1,-1,-1,-1,-1,-1,-1,-1,-1,-1,-1,-1,-1,-1,-1,-1,-1,-1,-1,-1,-1,-1,-1,-1],"split_conditions":[1.0974828E3,6.5E1,1.2884295E1,2.988E1,4.1629776E-2,9E-3,8.963606E-2,1.224E1,1.156E0,1.9296135E1,1.0261738E3,7.9036245E0,9.9621295E2,1.0117887E3,9.1E-1,2.1068459E0,9.743305E0,1.61E-1,2.689088E2,1.02297125E3,1E0,8.492857E-1,9.44749E1,-2.4051435E-1,3.109554E2,1.13585005E1,1.0158397E3,7.697936E1,6.327253E1,1.1155508E3,6.947546E-2,6.585E-1,5.4E1,2.34E1,1.01902895E1,3.7E1,-7.4415E0,1.92E0,1.5094313E1,1.8E1,1.88E0,2.2088638E1,9.643246E2,1.281981E1,4.3085E0,6.7469993E0,2.750795E2,1.19585E1,5.985137E0,-6.303995E-2,3.9353292E-2,-4.130913E-2,1.2067663E-1,1.6E0,2.0880001E1,5.076E1,1.4E-1,-5.4447927E-2,8.591159E1,1.57585E1,1E-2,7.6042436E-2,-3.0208964E-2,-5.3801168E-2,7.130908E-2,-1.3320145E-2,3.157298E-2,-6.028372E-2,-1.7108293E-2,7.244055E-2,-2.3750326E-2,1.059913E-1,-1.23211695E-2,7.389675E-2,-4.7016013E-2,4.3703105E-2,-5.6843113E-2,-6.8691485E-3,2.3444382E-2,6.3199624E-2,-8.836931E-3,-6.578223E-2,8.442276E-2,5.920685E-2,1.1398965E-1,-1.4404833E-2,2.217604E-2,7.000593E-2,-5.033837E-2,-5.6111566E-3,9.173732E-2,-5.4313805E-2,1.5539318E-2,5.7631027E-2,-4.6284676E-2,2.424105E-2,1.2734494E-1,-5.056575E-2,5.4970037E-2,-3.9837502E-2,2.5068346E-2,-5.490244E-2,7.757253E-2,-6.616868E-2,5.8114737E-2,1.23760834E-1,2.3014564E-2,-4.4368353E-2,9.571319E-2,2.3526464E-2,-6.854228E-2],"split_indices":[22,5,12,15,10,18,10,14,18,6,4,12,4,4,17,6,6,18,7,4,19,9,1,10,7,2,4,1,1,22,0,2,5,14,6,5,2,17,11,8,17,13,22,13,0,6,7,2,13,0,0,0,0,3,16,8,17,0,1,0,17,0,0,0,0,0,0,0,0,0,0,0,0,0,0,0,0,0,0,0,0,0,0,0,0,0,0,0,0,0,0,0,0,0,0,0,0,0,0,0,0,0,0,0,0,0,0,0,0,0,0],"split_type":[0,0,0,0,0,0,0,0,0,0,0,0,0,0,0,0,0,0,0,0,0,0,0,0,0,0,0,0,0,0,0,0,0,0,0,0,0,0,0,0,0,0,0,0,0,0,0,0,0,0,0,0,0,0,0,0,0,0,0,0,0,0,0,0,0,0,0,0,0,0,0,0,0,0,0,0,0,0,0,0,0,0,0,0,0,0,0,0,0,0,0,0,0,0,0,0,0,0,0,0,0,0,0,0,0,0,0,0,0,0,0],"sum_hessian":[4.0499673E3,3.39408E3,6.5588727E2,1.3532341E3,2.040846E3,4.720447E2,1.8384258E2,9.4088153E2,4.1235266E2,1.2083862E3,8.3245966E2,1.9078056E1,4.5296664E2,1.2386885E2,5.997372E1,1.6337733E2,7.7750415E2,3.1269992E2,9.9652725E1,1.066507E3,1.4187926E2,7.436871E2,8.877259E1,1.1961449E1,7.1166086E0,5.830244E0,4.4713638E2,8.5209854E1,3.8658997E1,5.7632645E1,2.3410785E0,2.6067757E1,1.3730959E2,5.0273056E2,2.7477362E2,5.6827793E1,2.5587213E2,7.386077E1,2.579195E1,8.806994E2,1.8580759E2,1.2878208E1,1.2900104E2,6.258153E2,1.17871765E2,6.720951E1,2.156308E1,2.7460537E0,9.215395E0,5.6747828E0,1.4418256E0,1.2744682E0,4.5557756E0,3.697114E2,7.742501E1,4.769752E1,3.751233E1,2.7508712E0,3.5908127E1,3.2877636E0,5.434488E1,1.1411054E1,1.4656703E1,1.3499704E2,2.3125398E0,4.3253812E2,7.019242E1,7.673406E1,1.9803957E2,3.655023E1,2.0277565E1,7.1995816E0,2.4867255E2,6.460303E1,9.257747E0,1.1564204E1,1.4227745E1,2.1384254E2,6.668569E2,1.5513448E2,3.0673101E1,7.1112165E0,5.7669916E0,1.1147838E2,1.7522665E1,3.5283197E2,2.729833E2,6.4655995E0,1.11406166E2,1.46016655E1,5.260785E1,1.28514E1,8.71168E0,1.0936569E0,1.6523968E0,1.8141775E0,7.4012175E0,3.622892E2,7.422167E0,4.33689E1,3.4056107E1,4.4224205E1,3.4733162E0,9.06728E0,2.844505E1,2.5813177E1,1.0094949E1,1.4731488E0,1.8146149E0,1.8249168E0,5.2519962E1],"tree_param":{"num_deleted":"0","num_feature":"23","num_nodes":"111","size_leaf_vector":"1"}},{"base_weights":[-3.5098823E-5,6.7377687E-1,-1.4048679E-1,4.5155457E-1,8.098726E-1,-1.6764338E-1,6.433694E-1,1.0028875E0,2.6480415E-1,-9.730963E-3,8.795229E-1,-1.5134565E-2,-2.7571955E-1,8.7730014E-1,2.5773784E-2,1.0658704E0,3.9825365E-2,8.600765E-1,1.4525734E-1,-1.3093773E-1,9.590134E-2,1.0814462E0,6.695167E-1,-3.472934E-1,1.5034045E-1,-1.332012E-1,-3.5514468E-1,9.6121347E-1,-1.9731273E-1,-4.5394498E-1,5.9213674E-1,-1.9598728E-2,1.0914097E0,7.49277E-2,-4.200746E-2,-3.9674966E-3,9.8871815E-1,6.449942E-1,-1.8682059E-2,6.5829515E-1,-2.7177325E-1,1.1027493E0,3.3891308E-1,-1.9390284E-1,7.187761E-1,-3.700432E-1,1.098598E-1,9.4870456E-2,5.267092E-1,4.4739404E-1,-2.07692E-1,-3.7249452E-1,6.706728E-2,1.19724385E-1,7.8157544E-1,7.6126896E-2,-5.875957E-2,-8.592918E-2,-6.027832E-1,1.06565155E-1,2.3468754E-1,1.1176746E-1,2.451436E-2,-4.6288062E-2,7.5854234E-2,4.853332E-2,1.09755956E-1,-2.4034882E-2,8.296624E-2,-1.0138295E-2,7.609154E-2,9.43726E-2,-1.9900022E-2,-5.7400435E-2,-2.3018606E-3,4.1464968E-3,1.1107409E-1,8.753979E-2,-8.376433E-3,-4.6815302E-2,8.265429E-2,4.173516E-2,8.772268E-2,-4.795632E-2,-1.6078057E-2,5.3366185E-3,5.4201186E-2,6.8234764E-2,-2.721697E-2,2.2989148E-2,1.3802278E-1,-5.021841E-2,-9.255007E-3,-3.864572E-2,1.3229022E-2,-1.9804105E-2,6.986396E-2,3.416255E-2,1.01371765E-1,8.512943E-2,-5.6574937E-2,-4.568079E-3,-6.612811E-2,-3.719188E-2,5.694228E-2],"categories":[],"categories_nodes":[],"categories_segments":[],"categories_sizes":[],"default_left":[0,0,0,0,0,0,0,0,0,0,0,0,0,0,0,0,0,0,0,0,0,0,0,0,0,0,0,0,0,0,0,0,0,0,0,0,0,0,0,0,0,0,0,0,0,0,0,0,0,0,0,0,0,0,0,0,0,0,0,0,0,0,0,0,0,0,0,0,0,0,0,0,0,0,0,0,0,0,0,0,0,0,0,0,0,0,0,0,0,0,0,0,0,0,0,0,0,0,0,0,0,0,0,0,0],"id":6,"left_children":[1,3,5,7,9,11,13,15,17,19,21,23,25,27,29,31,33,35,37,39,-1,41,43,45,47,49,51,53,55,57,59,-1,61,-1,-1,63,65,67,69,71,73,75,77,79,81,83,-1,85,87,89,91,93,95,-1,97,-1,-1,99,101,-1,103,-1,-1,-1,-1,-1,-1,-1,-1,-1,-1,-1,-1,-1,-1,-1,-1,-1,-1,-1,-1,-1,-1,-1,-1,-1,-1,-1,-1,-1,-1,-1,-1,-1,-1,-1,-1,-1,-1,-1,-1,-1,-1,-1,-1],"loss_changes":[3.8180396E2,2.0680267E1,7.117357E1,2.7180866E1,2.4573303E1,5.3193024E1,1.6157806E1,4.026924E0,1.4141856E1,4.1991863E0,1.6094727E1,7.368407E1,2.1333527E1,7.511589E0,8.908001E0,2.2420044E0,1.9973642E0,3.7080975E0,1.3788437E1,3.7040968E0,0E0,2.7990265E0,8.519974E0,1.5069332E1,1.8632484E1,2.9396091E1,8.905426E0,2.2649002E0,2.9579914E0,9.221878E-1,2.2914443E0,0E0,1.1004333E0,0E0,0E0,2.2108347E0,1.0567932E0,6.9951324E0,8.303301E0,1.4344559E0,2.0633254E0,1.6039124E0,1.6691978E0,3.583619E0,8.547127E0,9.997993E0,0E0,1.4467819E1,1.4450518E1,1.5378915E1,2.0338697E1,8.259399E0,8.2920685E0,0E0,4.325573E0,0E0,0E0,3.3087938E0,3.7698936E-1,0E0,2.2096148E0,0E0,0E0,0E0,0E0,0E0,0E0,0E0,0E0,0E0,0E0,0E0,0E0,0E0,0E0,0E0,0E0,0E0,0E0,0E0,0E0,0E0,0E0,0E0,0E0,0E0,0E0,0E0,0E0,0E0,0E0,0E0,0E0,0E0,0E0,0E0,0E0,0E0,0E0,0E0,0E0,0E0,0E0,0E0,0E0],"parents":[2147483647,0,0,1,1,2,2,3,3,4,4,5,5,6,6,7,7,8,8,9,9,10,10,11,11,12,12,13,13,14,14,15,15,16,16,17,17,18,18,19,19,21,21,22,22,23,23,24,24,25,25,26,26,27,27,28,28,29,29,30,30,32,32,35,35,36,36,37,37,38,38,39,39,40,40,41,41,42,42,43,43,44,44,45,45,47,47,48,48,49,49,50,50,51,51,52,52,54,54,57,57,58,58,60,60],"right_children":[2,4,6,8,10,12,14,16,18,20,22,24,26,28,30,32,34,36,38,40,-1,42,44,46,48,50,52,54,56,58,60,-1,62,-1,-1,64,66,68,70,72,74,76,78,80,82,84,-1,86,88,90,92,94,96,-1,98,-1,-1,100,102,-1,104,-1,-1,-1,-1,-1,-1,-1,-1,-1,-1,-1,-1,-1,-1,-1,-1,-1,-1,-1,-1,-1,-1,-1,-1,-1,-1,-1,-1,-1,-1,-1,-1,-1,-1,-1,-1,-1,-1,-1,-1,-1,-1,-1,-1],"split_conditions":[1.1E-1,2E-2,2.64E0,9.66E-1,4.5935944E2,8.5E-1,1.02139264E3,2.6121585E2,1.872E1,5.2409667E-1,4E-2,5.6285553E1,7.99E-1,4.1039997E1,2E0,9.92082E2,8.8E1,2.3469126E0,1.0079637E3,8.476285E0,9.590134E-2,5.3639996E1,-9.941446E-1,1.43585005E1,2.8403625E2,1E0,2.21E0,1.728E1,1.9961797E2,3.71E0,-1.9914999E0,-1.9598728E-2,9.734171E-1,7.49277E-2,-4.200746E-2,1.273E0,-8.496405E-1,1.05E0,8.34958E-1,1.368E0,-9.9149996E-1,2.585E-1,3E-2,3.1319998E1,6.8085E0,6.57E-1,1.098598E-1,1.4225521E3,9.757976E1,3.5898003E-1,6.5855736E1,1.773E0,4E0,1.19724385E-1,4.1085E0,7.6126896E-2,-5.875957E-2,8.430364E1,5.7534394E0,1.06565155E-1,-6.415E-1,1.1176746E-1,2.451436E-2,-4.6288062E-2,7.5854234E-2,4.853332E-2,1.09755956E-1,-2.4034882E-2,8.296624E-2,-1.0138295E-2,7.609154E-2,9.43726E-2,-1.9900022E-2,-5.7400435E-2,-2.3018606E-3,4.1464968E-3,1.1107409E-1,8.753979E-2,-8.376433E-3,-4.6815302E-2,8.265429E-2,4.173516E-2,8.772268E-2,-4.795632E-2,-1.6078057E-2,5.3366185E-3,5.4201186E-2,6.8234764E-2,-2.721697E-2,2.2989148E-2,1.3802278E-1,-5.021841E-2,-9.255007E-3,-3.864572E-2,1.3229022E-2,-1.9804105E-2,6.986396E-2,3.416255E-2,1.01371765E-1,8.512943E-2,-5.6574937E-2,-4.568079E-3,-6.612811E-2,-3.719188E-2,5.694228E-2],"split_indices":[17,17,17,18,22,17,4,21,16,10,17,1,18,14,5,4,5,6,4,21,0,16,10,2,7,5,17,8,7,17,2,0,9,0,0,18,10,18,9,18,2,2,17,15,2,18,0,22,1,10,1,18,20,0,0,0,0,1,11,0,2,0,0,0,0,0,0,0,0,0,0,0,0,0,0,0,0,0,0,0,0,0,0,0,0,0,0,0,0,0,0,0,0,0,0,0,0,0,0,0,0,0,0,0,0],"split_type":[0,0,0,0,0,0,0,0,0,0,0,0,0,0,0,0,0,0,0,0,0,0,0,0,0,0,0,0,0,0,0,0,0,0,0,0,0,0,0,0,0,0,0,0,0,0,0,0,0,0,0,0,0,0,0,0,0,0,0,0,0,0,0,0,0,0,0,0,0,0,0,0,0,0,0,0,0,0,0,0,0,0,0,0,0,0,0,0,0,0,0,0,0,0,0,0,0,0,0,0,0,0,0,0,0],"sum_hessian":[4.0323604E3,6.948836E2,3.3374768E3,2.655695E2,4.2931412E2,3.2264817E3,1.10994934E2,6.6088844E1,1.9948065E2,3.3693172E1,3.9562094E2,1.3386381E3,1.8878438E3,8.0197495E1,3.079744E1,6.1931835E1,4.157008E0,3.2325306E1,1.6715535E2,3.0715025E1,2.9781458E0,1.9957646E2,1.960445E2,4.447634E2,8.9387463E2,6.7654553E2,1.2112982E3,7.448658E1,5.7109103E0,1.678162E1,1.4015819E1,1.0962003E0,6.0835636E1,1.387462E0,2.769546E0,4.3146133E0,2.8010693E1,4.0565403E1,1.2658994E2,4.094653E0,2.6620373E1,1.9353876E2,6.0377073E0,1.0422498E1,1.85622E2,4.386064E2,6.1569963E0,7.8014703E2,1.1372761E2,7.6361755E1,6.001838E2,1.1636005E3,4.7697742E1,2.9742496E1,4.4744083E1,1.3773694E0,4.333541E0,5.286819E0,1.14948015E1,5.1768084E0,8.83901E0,5.8693302E1,2.1423311E0,2.9388382E0,1.3757751E0,5.9502473E0,2.2060444E1,6.9489555E0,3.3616447E1,1.15235535E2,1.1354406E1,2.9962528E0,1.0984006E0,1.1428048E1,1.5192324E1,1.4927382E0,1.9204602E2,2.188662E0,3.8490453E0,8.641323E0,1.7811744E0,6.520843E1,1.2041357E2,2.870722E2,1.5153421E2,7.1490765E2,6.523934E1,9.5305885E1,1.8421722E1,6.2934242E1,1.3427509E1,1.6775775E2,4.3242603E2,1.132509E3,3.1091494E1,3.407914E1,1.3618604E1,1.6308413E1,2.843567E1,1.5280038E0,3.758815E0,1.2615343E0,1.0233268E1,3.1035972E0,5.7354136E0],"tree_param":{"num_deleted":"0","num_feature":"23","num_nodes":"105","size_leaf_vector":"1"}},{"base_weights":[-1.0159262E-3,-5.437511E-1,1.327412E-1,-3.4307393E-1,-6.515412E-1,3.738017E-1,1.3695711E-2,5.110265E-1,-4.1117594E-1,-2.3363551E-1,-6.9940016E-2,5.001434E-1,2.35112E-1,-4.4252583E-1,1.7863514E-1,-6.227973E-2,1.133576E-1,-1.165883E-3,-5.663571E-1,4.6529683E-1,-6.806376E-2,1.8989073E-2,5.548315E-1,3.0247802E-1,-5.224701E-1,-1.7706394E-1,-5.5796367E-1,2.3932348E-1,-5.621973E-1,-4.550626E-1,4.40444E-1,-6.075181E-1,5.6404495E-1,-6.0990024E-2,9.385084E-1,-4.4404846E-1,6.218854E-1,5.741734E-1,-6.6244334E-2,1.0906272E-1,5.122413E-1,7.036086E-1,-7.277808E-2,5.3987247E-1,-3.4753922E-1,6.0571754E-1,-5.77601E-1,-1.407901E-1,3.336223E-1,-2.1697435E-1,-6.958708E-2,9.597403E-2,-6.83379E-2,6.704074E-2,-6.452207E-2,-7.006698E-2,-3.886285E-3,1.0257818E-1,-4.676503E-2,-4.5160558E-2,1.14360504E-1,5.3480048E-2,-6.9429144E-2,1.016161E-1,-6.1040998E-2,5.29834E-2,1.1021884E-1,-4.4192884E-2,2.9384E-2,6.621691E-2,-4.2894427E-2,1.0987743E-1,-4.280533E-2,1.1630004E-1,-6.6530876E-2,1.0141017E-1,-3.990833E-2,1.1573265E-1,-4.844039E-2,-6.750585E-2,-3.3696115E-2,-2.6964605E-2,9.1021895E-2,4.2639535E-2,-9.2445575E-3,4.7022227E-2,-6.817287E-2],"categories":[],"categories_nodes":[],"categories_segments":[],"categories_sizes":[],"default_left":[0,0,0,0,0,0,0,0,0,0,0,0,0,0,0,0,0,0,0,0,0,0,0,0,0,0,0,0,0,0,0,0,0,0,0,0,0,0,0,0,0,0,0,0,0,0,0,0,0,0,0,0,0,0,0,0,0,0,0,0,0,0,0,0,0,0,0,0,0,0,0,0,0,0,0,0,0,0,0,0,0,0,0,0,0,0,0],"id":7,"left_children":[1,3,5,7,9,11,13,15,17,19,-1,21,23,25,27,-1,-1,29,31,33,-1,35,37,39,41,43,45,47,49,51,53,55,57,-1,59,61,63,65,-1,67,69,71,-1,73,75,77,79,81,83,85,-1,-1,-1,-1,-1,-1,-1,-1,-1,-1,-1,-1,-1,-1,-1,-1,-1,-1,-1,-1,-1,-1,-1,-1,-1,-1,-1,-1,-1,-1,-1,-1,-1,-1,-1,-1,-1],"loss_changes":[2.9288428E2,1.7031769E1,9.2882126E1,1.6546734E1,1.0193802E1,1.8631271E1,1.6320425E2,1.5660878E1,1.6585022E1,1.7410147E1,0E0,1.4699707E1,2.6286142E1,1.7549728E1,7.175089E1,0E0,0E0,1.4747567E1,9.141258E0,1.1733311E1,0E0,1.6493042E1,1.2198456E1,1.9044666E1,1.1128388E1,2.1698956E1,9.511284E0,5.2845085E1,5.428524E0,1.2375456E1,9.743271E0,9.663261E0,3.8916345E0,0E0,4.9715366E0,8.562415E0,1.3083211E1,1.0996323E1,0E0,2.5196571E1,3.21154E1,3.4028723E0,0E0,2.6459515E1,1.0427221E1,4.854813E0,9.030716E0,3.999221E1,4.670169E1,1.1563165E1,0E0,0E0,0E0,0E0,0E0,0E0,0E0,0E0,0E0,0E0,0E0,0E0,0E0,0E0,0E0,0E0,0E0,0E0,0E0,0E0,0E0,0E0,0E0,0E0,0E0,0E0,0E0,0E0,0E0,0E0,0E0,0E0,0E0,0E0,0E0,0E0,0E0],"parents":[2147483647,0,0,1,1,2,2,3,3,4,4,5,5,6,6,7,7,8,8,9,9,11,11,12,12,13,13,14,14,17,17,18,18,19,19,21,21,22,22,23,23,24,24,25,25,26,26,27,27,28,28,29,29,30,30,31,31,32,32,34,34,35,35,36,36,37,37,39,39,40,40,41,41,43,43,44,44,45,45,46,46,47,47,48,48,49,49],"right_children":[2,4,6,8,10,12,14,16,18,20,-1,22,24,26,28,-1,-1,30,32,34,-1,36,38,40,42,44,46,48,50,52,54,56,58,-1,60,62,64,66,-1,68,70,72,-1,74,76,78,80,82,84,86,-1,-1,-1,-1,-1,-1,-1,-1,-1,-1,-1,-1,-1,-1,-1,-1,-1,-1,-1,-1,-1,-1,-1,-1,-1,-1,-1,-1,-1,-1,-1,-1,-1,-1,-1,-1,-1],"split_conditions":[2.3E-1,6.519355E1,6.708805E1,-2.1915E0,1E0,6.83E-1,8.4E-1,8.492857E-1,-5.021344E-1,-9.391223E-1,-6.9940016E-2,-9.615236E-1,2.756147E2,7.914737E1,2.39E0,-6.227973E-2,1.133576E-1,1.0541682E3,6.492698E1,1.3158501E1,-6.806376E-2,1E-1,2.03E0,1.016082E3,-9.08258E-1,6.2062144E0,2.4E-1,5.6E-1,-1.6415E0,1.0495713E0,3.528E1,1.0210699E3,1.1908501E1,-6.0990024E-2,1.016082E3,1.00396735E3,1.5126983E1,1.8E0,-6.6244334E-2,1.24585E1,4.5585E0,1.00154333E3,-7.277808E-2,-9.74008E-1,3.4777905E1,1.4512063E0,7E-1,5E-1,1.0232344E3,-2.0601E-1,-6.958708E-2,9.597403E-2,-6.83379E-2,6.704074E-2,-6.452207E-2,-7.006698E-2,-3.886285E-3,1.0257818E-1,-4.676503E-2,-4.5160558E-2,1.14360504E-1,5.3480048E-2,-6.9429144E-2,1.016161E-1,-6.1040998E-2,5.29834E-2,1.1021884E-1,-4.4192884E-2,2.9384E-2,6.621691E-2,-4.2894427E-2,1.0987743E-1,-4.280533E-2,1.1630004E-1,-6.6530876E-2,1.0141017E-1,-3.990833E-2,1.1573265E-1,-4.844039E-2,-6.750585E-2,-3.3696115E-2,-2.6964605E-2,9.1021895E-2,4.2639535E-2,-9.2445575E-3,4.7022227E-2,-6.817287E-2],"split_indices":[17,1,1,2,5,18,17,9,10,10,0,9,21,1,17,0,0,22,1,0,0,3,17,4,10,13,17,18,2,6,16,4,0,0,4,4,13,17,0,0,2,4,0,9,7,6,17,3,4,10,0,0,0,0,0,0,0,0,0,0,0,0,0,0,0,0,0,0,0,0,0,0,0,0,0,0,0,0,0,0,0,0,0,0,0,0,0],"split_type":[0,0,0,0,0,0,0,0,0,0,0,0,0,0,0,0,0,0,0,0,0,0,0,0,0,0,0,0,0,0,0,0,0,0,0,0,0,0,0,0,0,0,0,0,0,0,0,0,0,0,0,0,0,0,0,0,0,0,0,0,0,0,0,0,0,0,0,0,0,0,0,0,0,0,0,0,0,0,0,0,0,0,0,0,0,0,0],"sum_hessian":[4.032519E3,7.9670996E2,3.235809E3,2.7986203E2,5.168479E2,1.0690011E3,2.166808E3,2.0186718E1,2.596753E2,5.371231E1,4.6313562E2,5.5803955E2,5.1096158E2,5.7491455E2,1.5918936E3,7.155076E0,1.3031642E1,7.157411E1,1.881012E2,2.0935944E1,3.2776367E1,5.7091E1,5.0094852E2,4.6978766E2,4.1173916E1,1.7500508E2,3.9990945E2,1.4719866E3,1.1990691E2,3.5281013E1,3.6293095E1,1.8193887E2,6.162322E0,6.309989E0,1.4625954E1,3.2439915E1,2.4651087E1,4.9363324E2,7.3152866E0,2.4520903E2,2.2457861E2,5.5576406E0,3.5616276E1,3.3202904E1,1.4180219E2,6.141282E0,3.937682E2,2.9248837E2,1.1794983E3,3.420159E1,8.570532E1,4.45726E0,3.0823755E1,3.0264927E1,6.0281677E0,1.5613084E2,2.5808027E1,4.2610254E0,1.9012966E0,1.7259315E0,1.29000225E1,6.373244E0,2.606667E1,1.880862E1,5.8424664E0,4.5724045E2,3.6392788E1,6.123106E1,1.8397798E2,1.9397542E2,3.0603191E1,4.14078E0,1.4168606E0,2.1909695E1,1.1293207E1,4.4909244E0,1.3731125E2,4.0369225E0,2.1043594E0,2.7897858E2,1.147896E2,2.6120724E2,3.1281122E1,9.685936E2,2.1090462E2,1.3793879E1,2.0407715E1],"tree_param":{"num_deleted":"0","num_feature":"23","num_nodes":"87","size_leaf_vector":"1"}},{"base_weights":[1.0487132E-3,-1.3302802E-1,1.0239072E-1,-2.1350677E-1,8.0765605E-2,2.1208201E-1,-6.4563446E-2,-1.608172E-1,-3.4878317E-1,1.3742578E-1,-3.940072E-1,3.5613456E-1,6.0747717E-2,-1.477715E-1,1.5637241E-1,-1.9603302E-1,1.9364485E-1,8.1720877E-1,-3.7976146E-1,7.61155E-1,9.7562954E-2,-6.8247184E-2,-1.1712137E-1,1.1625484E-2,4.3614572E-1,5.3747153E-1,4.6712696E-3,-5.2481705E-1,-6.741409E-2,9.669994E-1,9.365354E-2,-2.6245102E-1,4.360805E-2,-4.2056435E-1,4.989837E-1,1.0484694E0,-3.991261E-2,-4.105254E-1,5.645186E-1,-5.7343073E-2,1.022234E0,-2.8514242E-1,1.5609261E-1,-4.4517782E-1,3.8047633E-1,-2.2551335E-1,6.435042E-1,-3.863745E-1,4.6159545E-1,-4.0093544E-1,6.52005E-1,-3.3239614E-2,5.504012E-1,7.172395E-2,-5.55414E-1,6.1312497E-2,-2.7664003E-1,1.1026282E0,-4.277993E-2,-7.408714E-2,4.0393177E-1,-2.9986335E-2,7.361874E-3,-6.091168E-2,1.3651447E-2,-5.4132808E-2,4.1361872E-2,6.25818E-2,-6.203806E-2,3.043652E-2,1.1873358E-1,-2.356854E-2,-5.3389806E-2,8.840696E-2,-5.1510364E-2,1.1416846E-1,5.249003E-3,9.3760036E-2,-4.0859994E-2,6.946134E-2,1.0812314E-2,-6.682457E-2,5.636409E-2,-5.317067E-2,7.647267E-2,-6.984563E-2,-9.807235E-4,7.9202436E-2,-5.944282E-2,1.9650482E-2,-5.667246E-2,3.9529238E-2,8.259639E-2,5.5305805E-2,-6.2303312E-2,7.3039055E-2,-5.6723952E-2,2.802376E-3,-4.0682625E-2,8.145126E-2,-4.3894347E-2,-5.8692742E-2,6.946791E-2,3.5015754E-2,-1.4251878E-2,6.920206E-2,-3.61115E-2,1.1829557E-1,2.5406087E-2,-3.142759E-2,3.6047358E-2,-1.6127532E-2,6.519326E-2],"categories":[],"categories_nodes":[],"categories_segments":[],"categories_sizes":[],"default_left":[0,0,0,0,0,0,0,0,0,0,0,0,0,0,0,0,0,0,0,0,0,0,0,0,0,0,0,0,0,0,0,0,0,0,0,0,0,0,0,0,0,0,0,0,0,0,0,0,0,0,0,0,0,0,0,0,0,0,0,0,0,0,0,0,0,0,0,0,0,0,0,0,0,0,0,0,0,0,0,0,0,0,0,0,0,0,0,0,0,0,0,0,0,0,0,0,0,0,0,0,0,0,0,0,0,0,0,0,0,0,0,0,0],"id":8,"left_children":[1,3,5,7,9,11,13,15,17,19,21,23,25,27,29,31,33,35,37,39,41,-1,43,45,47,49,51,53,55,57,59,61,63,65,67,69,-1,71,73,-1,75,77,79,81,83,85,87,89,91,93,95,97,99,-1,101,103,105,107,-1,109,111,-1,-1,-1,-1,-1,-1,-1,-1,-1,-1,-1,-1,-1,-1,-1,-1,-1,-1,-1,-1,-1,-1,-1,-1,-1,-1,-1,-1,-1,-1,-1,-1,-1,-1,-1,-1,-1,-1,-1,-1,-1,-1,-1,-1,-1,-1,-1,-1,-1,-1,-1,-1],"loss_changes":[5.494012E1,2.9965534E1,4.2186005E1,8.959251E0,1.2879017E1,3.0279778E1,1.6822851E1,1.1423929E1,1.3086048E1,1.0534047E1,4.000591E0,1.9618439E1,1.8150702E1,2.0093243E1,1.2645048E1,1.322543E1,1.5763612E1,3.0826201E0,1.026049E1,9.465275E0,9.05312E0,0E0,4.6216793E0,2.0404526E1,1.2271408E1,7.941969E0,1.2609598E1,4.828251E0,1.4797219E1,3.8545303E0,1.2188656E1,8.196964E0,1.10607E1,3.0527987E0,8.317958E0,4.894247E-1,0E0,7.0984E0,4.3584404E0,0E0,2.4505825E0,8.489842E0,8.952721E0,4.1793814E0,4.394027E0,1.0097902E1,7.301901E0,1.9912431E0,1.322229E1,2.1227493E0,6.5374146E0,1.3057254E1,1.0701971E1,0E0,4.911606E0,2.0101032E1,1.7369247E1,8.2938194E-1,0E0,1.6028824E1,1.1617725E1,0E0,0E0,0E0,0E0,0E0,0E0,0E0,0E0,0E0,0E0,0E0,0E0,0E0,0E0,0E0,0E0,0E0,0E0,0E0,0E0,0E0,0E0,0E0,0E0,0E0,0E0,0E0,0E0,0E0,0E0,0E0,0E0,0E0,0E0,0E0,0E0,0E0,0E0,0E0,0E0,0E0,0E0,0E0,0E0,0E0,0E0,0E0,0E0,0E0,0E0,0E0,0E0],"parents":[2147483647,0,0,1,1,2,2,3,3,4,4,5,5,6,6,7,7,8,8,9,9,10,10,11,11,12,12,13,13,14,14,15,15,16,16,17,17,18,18,19,19,20,20,22,22,23,23,24,24,25,25,26,26,27,27,28,28,29,29,30,30,31,31,32,32,33,33,34,34,35,35,37,37,38,38,40,40,41,41,42,42,43,43,44,44,45,45,46,46,47,47,48,48,49,49,50,50,51,51,52,52,54,54,55,55,56,56,57,57,59,59,60,60],"right_children":[2,4,6,8,10,12,14,16,18,20,22,24,26,28,30,32,34,36,38,40,42,-1,44,46,48,50,52,54,56,58,60,62,64,66,68,70,-1,72,74,-1,76,78,80,82,84,86,88,90,92,94,96,98,100,-1,102,104,106,108,-1,110,112,-1,-1,-1,-1,-1,-1,-1,-1,-1,-1,-1,-1,-1,-1,-1,-1,-1,-1,-1,-1,-1,-1,-1,-1,-1,-1,-1,-1,-1,-1,-1,-1,-1,-1,-1,-1,-1,-1,-1,-1,-1,-1,-1,-1,-1,-1,-1,-1,-1,-1,-1,-1],"split_conditions":[7.6E1,2.988E1,1.08585005E1,8.9585E0,1.18085E1,1.38E0,1.6368418E1,1.578E0,-6.3E-2,1.1394745E1,4.09E-1,4E-2,-9.842714E-1,7E-2,1.9983809E2,7.144945E2,7.5077167E0,2.196E1,1.02119824E3,-2.67E-1,1.2317443E1,-6.8247184E-2,3.236664E2,1.713E0,9E-3,4.5519806E1,1.54E0,-9.99635E-1,2.9000908E-1,7.62997E1,1.0121154E3,2.13E0,4E-2,1.0244304E3,1.27279215E1,1.872E1,-3.991261E-2,1.9808354E2,1.312E0,-5.7343073E-2,2.3810216E2,-3.1E-2,-7.313285E-1,6.8E1,1.1E-1,8.84E-1,9.3354965E1,2.0590645E2,1.0267793E3,1.0185448E3,3.71E0,9.093081E-1,9.102665E1,7.172395E-2,1.0247815E3,7.098449E1,4.1325405E1,1.0132988E3,-4.277993E-2,4.8239998E1,5.7085E0,-2.9986335E-2,7.361874E-3,-6.091168E-2,1.3651447E-2,-5.4132808E-2,4.1361872E-2,6.25818E-2,-6.203806E-2,3.043652E-2,1.1873358E-1,-2.356854E-2,-5.3389806E-2,8.840696E-2,-5.1510364E-2,1.1416846E-1,5.249003E-3,9.3760036E-2,-4.0859994E-2,6.946134E-2,1.0812314E-2,-6.682457E-2,5.636409E-2,-5.317067E-2,7.647267E-2,-6.984563E-2,-9.807235E-4,7.9202436E-2,-5.944282E-2,1.9650482E-2,-5.667246E-2,3.9529238E-2,8.259639E-2,5.5305805E-2,-6.2303312E-2,7.3039055E-2,-5.6723952E-2,2.802376E-3,-4.0682625E-2,8.145126E-2,-4.3894347E-2,-5.8692742E-2,6.946791E-2,3.5015754E-2,-1.4251878E-2,6.920206E-2,-3.61115E-2,1.1829557E-1,2.5406087E-2,-3.142759E-2,3.6047358E-2,-1.6127532E-2,6.519326E-2],"split_indices":[5,8,0,2,2,17,12,18,18,11,18,17,9,17,21,22,12,8,4,18,12,0,21,18,18,22,18,10,10,1,4,17,17,4,6,8,0,7,18,0,21,18,10,5,17,18,1,7,4,4,17,9,21,0,4,1,7,4,0,15,2,0,0,0,0,0,0,0,0,0,0,0,0,0,0,0,0,0,0,0,0,0,0,0,0,0,0,0,0,0,0,0,0,0,0,0,0,0,0,0,0,0,0,0,0,0,0,0,0,0,0,0,0],"split_type":[0,0,0,0,0,0,0,0,0,0,0,0,0,0,0,0,0,0,0,0,0,0,0,0,0,0,0,0,0,0,0,0,0,0,0,0,0,0,0,0,0,0,0,0,0,0,0,0,0,0,0,0,0,0,0,0,0,0,0,0,0,0,0,0,0,0,0,0,0,0,0,0,0,0,0,0,0,0,0,0,0,0,0,0,0,0,0,0,0,0,0,0,0,0,0,0,0,0,0,0,0,0,0,0,0,0,0,0,0,0,0,0,0],"sum_hessian":[4.0413972E3,1.739588E3,2.301809E3,1.2638397E3,4.757484E2,1.3889673E3,9.1284186E2,9.111424E2,3.526973E2,4.2565997E2,5.0088425E1,7.1091046E2,6.780568E2,6.6334607E2,2.494958E2,8.292076E2,8.193482E1,8.471165E0,3.4422614E2,2.4482986E1,4.01177E2,2.381388E1,2.6274542E1,1.3420424E2,5.7670624E2,7.0460976E1,6.075959E2,1.1556618E2,5.477799E2,1.6881989E1,2.3261382E2,6.4918634E2,1.800212E2,2.7081411E1,5.485341E1,7.233815E0,1.2373497E0,3.3391275E2,1.031338E1,3.8100986E0,2.0672888E1,5.2702393E1,3.484746E2,1.589839E1,1.0376152E1,9.8049995E1,3.615424E1,1.6882774E1,5.598235E2,7.392382E0,6.306859E1,5.690071E2,3.8588814E1,2.238892E0,1.13327286E2,3.3956747E2,2.0821245E2,1.5576789E1,1.3052002E0,1.5148186E2,8.113195E1,5.8425323E2,6.493314E1,2.1738514E1,1.5828268E2,2.3963335E1,3.1180768E0,4.966664E1,5.1867676E0,1.6396518E0,5.5941634E0,1.3934605E2,1.9456668E2,8.097715E0,2.2156646E0,1.8247858E1,2.425031E0,4.228467E0,4.8473927E1,2.7399437E1,3.2107516E2,1.3296001E1,2.602388E0,2.9616516E0,7.4145007E0,3.001127E1,6.803872E1,3.260293E1,3.55131E0,3.968211E0,1.2914563E1,4.7540103E2,8.442244E1,1.1145995E0,6.2777824E0,5.963555E1,3.4330368E0,4.896378E2,7.936928E1,3.0597376E1,7.991437E0,1.11058136E2,2.2691495E0,1.401897E2,1.9937776E2,1.6124416E1,1.9208803E2,1.386978E1,1.7070096E0,9.773753E1,5.374432E1,2.4849142E1,5.6282814E1],"tree_param":{"num_deleted":"0","num_feature":"23","num_nodes":"113","size_leaf_vector":"1"}},{"base_weights":[-2.1869758E-4,6.139378E-1,-1.3146964E-1,4.109499E-1,7.3744315E-1,-1.5719005E-1,5.940984E-1,9.093557E-1,2.4018613E-1,-1.2922282E-2,7.997833E-1,-1.5077018E-2,-2.5929275E-1,8.0711514E-1,1.9985829E-2,9.6458566E-1,4.0039264E-2,7.859042E-1,1.2919638E-1,-1.2909509E-1,8.9450724E-2,9.837396E-1,6.0828364E-1,-3.297971E-1,1.3776541E-1,3.8474226E-1,-2.762134E-1,8.98879E-1,-4.04915E-2,4.3184313E-1,-5.756898E-1,-2.0251306E-2,9.882374E-1,7.119086E-2,-4.077646E-2,-1.2519841E-2,9.028663E-1,5.845821E-1,-2.2776343E-2,6.0952246E-1,-2.6377273E-1,1.0025496E0,3.1801352E-1,-1.8814224E-1,6.525343E-1,-3.54539E-1,9.045843E-1,7.189094E-2,4.129857E-1,8.342736E-1,-3.6551967E-1,-3.3110276E-1,-1.1378121E-1,1.1002864E-1,7.352652E-1,5.5243284E-1,-5.7526805E-2,-2.4722014E-1,8.457473E-1,-4.305442E-3,-6.27344E-1,1.0368513E-1,4.8532765E-2,-4.5529906E-2,7.1129724E-2,1.08109355E-1,5.9205532E-2,-2.426254E-2,7.542551E-2,-1.8647557E-2,3.2749478E-2,8.763489E-2,-1.9860528E-2,-3.8903404E-3,-5.8646407E-2,3.3321057E-3,1.0097851E-1,-2.6976455E-2,6.407836E-2,-4.537116E-2,7.732572E-2,3.7810307E-2,7.9607025E-2,-4.6040054E-2,-1.5537009E-2,1.065666E-1,-1.6392583E-2,2.819714E-3,5.374322E-2,-2.0600611E-2,4.8511174E-2,-6.9020684E-3,1.017613E-1,-5.5378765E-2,3.77411E-4,-3.4916304E-2,4.0999193E-2,1.8678539E-2,-1.8350927E-2,2.995387E-2,9.787565E-2,8.7700084E-2,-2.482134E-2,-5.5276103E-2,6.945661E-2,9.5852375E-2,-1.753667E-2,-6.5226905E-2,-1.9605247E-2],"categories":[],"categories_nodes":[],"categories_segments":[],"categories_sizes":[],"default_left":[0,0,0,0,0,0,0,0,0,0,0,0,0,0,0,0,0,0,0,0,0,0,0,0,0,0,0,0,0,0,0,0,0,0,0,0,0,0,0,0,0,0,0,0,0,0,0,0,0,0,0,0,0,0,0,0,0,0,0,0,0,0,0,0,0,0,0,0,0,0,0,0,0,0,0,0,0,0,0,0,0,0,0,0,0,0,0,0,0,0,0,0,0,0,0,0,0,0,0,0,0,0,0,0,0,0,0,0,0],"id":9,"left_children":[1,3,5,7,9,11,13,15,17,19,21,23,25,27,29,31,33,35,37,39,-1,41,43,45,47,49,51,53,55,57,59,-1,61,-1,-1,63,65,67,69,71,73,75,77,79,81,83,85,87,89,91,93,95,97,-1,99,101,-1,103,105,-1,107,-1,-1,-1,-1,-1,-1,-1,-1,-1,-1,-1,-1,-1,-1,-1,-1,-1,-1,-1,-1,-1,-1,-1,-1,-1,-1,-1,-1,-1,-1,-1,-1,-1,-1,-1,-1,-1,-1,-1,-1,-1,-1,-1,-1,-1,-1,-1,-1],"loss_changes":[3.2325607E2,1.7399261E1,6.1753803E1,2.2707214E1,2.0487198E1,4.630883E1,1.3842972E1,3.2444496E0,1.213257E1,3.7589898E0,1.3640045E1,6.42856E1,2.0345871E1,6.463398E0,8.024164E0,1.9737282E0,1.8331715E0,3.180872E0,1.1712284E1,3.2955976E0,0E0,2.2424164E0,7.194229E0,1.3662632E1,1.6280586E1,1.6481773E1,1.6102646E1,1.649353E0,3.1806715E0,5.6363463E0,3.412323E-1,0E0,1.040596E0,0E0,0E0,2.029844E0,1.0006046E0,6.125039E0,7.3838053E0,1.2871288E0,1.9619082E0,1.3580017E0,1.5169721E0,3.245614E0,7.1956177E0,8.97337E0,1.7006469E0,1.47749405E1,7.847332E0,5.0878925E0,1.2998958E0,1.8246185E1,9.648861E0,0E0,4.3938484E0,1.462888E0,0E0,2.7107854E0,1.5756912E0,0E0,2.4905205E-3,0E0,0E0,0E0,0E0,0E0,0E0,0E0,0E0,0E0,0E0,0E0,0E0,0E0,0E0,0E0,0E0,0E0,0E0,0E0,0E0,0E0,0E0,0E0,0E0,0E0,0E0,0E0,0E0,0E0,0E0,0E0,0E0,0E0,0E0,0E0,0E0,0E0,0E0,0E0,0E0,0E0,0E0,0E0,0E0,0E0,0E0,0E0,0E0],"parents":[2147483647,0,0,1,1,2,2,3,3,4,4,5,5,6,6,7,7,8,8,9,9,10,10,11,11,12,12,13,13,14,14,15,15,16,16,17,17,18,18,19,19,21,21,22,22,23,23,24,24,25,25,26,26,27,27,28,28,29,29,30,30,32,32,35,35,36,36,37,37,38,38,39,39,40,40,41,41,42,42,43,43,44,44,45,45,46,46,47,47,48,48,49,49,50,50,51,51,52,52,54,54,55,55,57,57,58,58,60,60],"right_children":[2,4,6,8,10,12,14,16,18,20,22,24,26,28,30,32,34,36,38,40,-1,42,44,46,48,50,52,54,56,58,60,-1,62,-1,-1,64,66,68,70,72,74,76,78,80,82,84,86,88,90,92,94,96,98,-1,100,102,-1,104,106,-1,108,-1,-1,-1,-1,-1,-1,-1,-1,-1,-1,-1,-1,-1,-1,-1,-1,-1,-1,-1,-1,-1,-1,-1,-1,-1,-1,-1,-1,-1,-1,-1,-1,-1,-1,-1,-1,-1,-1,-1,-1,-1,-1,-1,-1,-1,-1,-1,-1],"split_conditions":[1.1E-1,2E-2,2.64E0,9.66E-1,4.5935944E2,8.5E-1,1.02139264E3,2.6121585E2,1.872E1,5.2409667E-1,4E-2,5.6285553E1,-2.1E-2,3.744E1,4.4912003E1,9.92082E2,8.8E1,2.3469126E0,1.0079637E3,8.476285E0,8.9450724E-2,5.3639996E1,-9.941446E-1,1.40085E1,2.742678E2,3.6719997E1,1.0209592E3,1.728E1,1.9961797E2,1.0219429E3,5.7534394E0,-2.0251306E-2,8.34958E-1,7.119086E-2,-4.077646E-2,1.273E0,4.5587456E-1,1.05E0,3E0,1.368E0,9E-2,2.585E-1,6.8539474E1,3.1319998E1,6.8085E0,6.57E-1,4.9E-1,1.591E0,3.9708092E0,-9.7953504E-1,3.996E1,2.13E0,-8.595366E-1,1.1002864E-1,4.1085E0,8.190292E1,-5.7526805E-2,7.54E-1,1.0285487E3,-4.305442E-3,7.0585E0,1.0368513E-1,4.8532765E-2,-4.5529906E-2,7.1129724E-2,1.08109355E-1,5.9205532E-2,-2.426254E-2,7.542551E-2,-1.8647557E-2,3.2749478E-2,8.763489E-2,-1.9860528E-2,-3.8903404E-3,-5.8646407E-2,3.3321057E-3,1.0097851E-1,-2.6976455E-2,6.407836E-2,-4.537116E-2,7.732572E-2,3.7810307E-2,7.9607025E-2,-4.6040054E-2,-1.5537009E-2,1.065666E-1,-1.6392583E-2,2.819714E-3,5.374322E-2,-2.0600611E-2,4.8511174E-2,-6.9020684E-3,1.017613E-1,-5.5378765E-2,3.77411E-4,-3.4916304E-2,4.0999193E-2,1.8678539E-2,-1.8350927E-2,2.995387E-2,9.787565E-2,8.7700084E-2,-2.482134E-2,-5.5276103E-2,6.945661E-2,9.5852375E-2,-1.753667E-2,-6.5226905E-2,-1.9605247E-2],"split_indices":[17,17,17,18,22,17,4,21,16,10,17,1,18,14,21,4,5,6,4,21,0,16,10,2,7,8,4,8,7,4,11,0,9,0,0,18,9,18,19,18,17,2,1,15,2,18,17,18,13,9,14,17,9,0,0,1,0,18,4,0,2,0,0,0,0,0,0,0,0,0,0,0,0,0,0,0,0,0,0,0,0,0,0,0,0,0,0,0,0,0,0,0,0,0,0,0,0,0,0,0,0,0,0,0,0,0,0,0,0],"split_type":[0,0,0,0,0,0,0,0,0,0,0,0,0,0,0,0,0,0,0,0,0,0,0,0,0,0,0,0,0,0,0,0,0,0,0,0,0,0,0,0,0,0,0,0,0,0,0,0,0,0,0,0,0,0,0,0,0,0,0,0,0,0,0,0,0,0,0,0,0,0,0,0,0,0,0,0,0,0,0,0,0,0,0,0,0,0,0,0,0,0,0,0,0,0,0,0,0,0,0,0,0,0,0,0,0,0,0,0,0],"sum_hessian":[4.0081907E3,7.051125E2,3.3030781E3,2.6836572E2,4.3674677E2,3.1907537E3,1.1232461E2,6.737985E1,2.0098587E2,3.3562325E1,4.0318445E2,1.3344828E3,1.8562708E3,8.163077E1,3.0693844E1,6.3251717E1,4.1281376E0,3.2940758E1,1.680451E2,3.0513588E1,3.048738E0,2.035324E2,1.9965205E2,4.3585324E2,8.986295E2,4.696457E1,1.8093062E3,7.360195E1,8.028812E0,1.8309483E1,1.2384361E1,1.1061531E0,6.2145565E1,1.4151374E0,2.713E0,4.3230524E0,2.8617706E1,4.133583E1,1.2670928E2,4.1619983E0,2.635159E1,1.9744757E2,6.0848155E0,1.0337923E1,1.8931413E2,4.2798743E2,7.8657913E0,7.260979E2,1.7253162E2,2.9298143E1,1.7666426E1,1.3515498E3,4.5775644E2,3.0424599E1,4.3177353E1,3.791754E0,4.2370586E0,7.086263E0,1.1223219E1,1.2569339E0,1.1127427E1,5.5699642E1,6.4459214E0,2.912419E0,1.4106336E0,1.661305E1,1.2004657E1,6.9623423E0,3.4373486E1,8.667114E1,4.0038136E1,3.0654373E0,1.0965607E0,1.6190031E1,1.0161559E1,1.5045892E0,1.95943E2,2.2151513E0,3.8696642E0,8.514121E0,1.8238021E0,6.626124E1,1.230529E2,2.7859702E2,1.4939043E2,6.8376527E0,1.0281386E0,6.6476624E2,6.1331676E1,1.781193E1,1.5471968E2,5.0484548E0,2.424969E1,1.1370233E1,6.2961926E0,1.3199127E3,3.1637047E1,8.588137E1,3.7187506E2,1.6278048E1,2.6899305E1,2.630165E0,1.1615889E0,5.662324E0,1.4239392E0,1.016216E1,1.0610589E0,1.003512E1,1.0923071E0],"tree_param":{"num_deleted":"0","num_feature":"23","num_nodes":"109","size_leaf_vector":"1"}},{"base_weights":[-1.6630575E-3,-5.244391E-1,1.22206554E-1,-3.2720056E-1,-6.322614E-1,3.4334025E-1,1.15144625E-2,4.7753084E-1,-3.9353105E-1,-2.1919465E-1,-6.804311E-2,4.5980623E-1,2.1463129E-1,-4.2473832E-1,1.6450253E-1,-6.089995E-2,1.04703546E-1,2.4742717E-3,-5.4727435E-1,4.4195753E-1,-6.611689E-2,1.5136508E-2,5.0919306E-1,-4.0600517E-1,2.881075E-1,1.2178687E-1,-4.7870085E-1,2.4132311E-1,-3.4299675E-1,-4.4015956E-1,4.170018E-1,-5.881956E-1,5.2958E-1,-5.933332E-2,8.77355E-1,-4.3325132E-1,5.846464E-1,1.4805879E-1,5.7187676E-1,9.977068E-2,-7.008142E-2,-7.3030196E-2,3.2761407E-1,5.55578E-1,-6.615243E-2,-5.79952E-1,-2.0167689E-1,-3.0265247E-2,3.444825E-1,-6.920215E-2,2.8887622E-2,8.885922E-2,-6.667939E-2,-1.6256081E-2,8.3379894E-2,-6.815686E-2,-2.973165E-3,9.5092855E-2,-4.524427E-2,-4.4001143E-2,1.06505714E-1,-6.8367E-2,4.9973313E-2,9.428152E-2,-5.928577E-2,-4.3074783E-2,4.6530135E-2,7.5927295E-2,4.573461E-2,1.5646366E-2,5.257556E-2,-6.2090617E-2,8.852402E-2,-2.9317528E-2,-6.900319E-2,2.0991292E-2,-4.2135127E-2,-2.878618E-2,3.0530084E-2,-5.705848E-2,3.9953645E-2,6.98957E-2,-3.3182085E-2],"categories":[],"categories_nodes":[],"categories_segments":[],"categories_sizes":[],"default_left":[0,0,0,0,0,0,0,0,0,0,0,0,0,0,0,0,0,0,0,0,0,0,0,0,0,0,0,0,0,0,0,0,0,0,0,0,0,0,0,0,0,0,0,0,0,0,0,0,0,0,0,0,0,0,0,0,0,0,0,0,0,0,0,0,0,0,0,0,0,0,0,0,0,0,0,0,0,0,0,0,0,0,0],"id":10,"left_children":[1,3,5,7,9,11,13,15,17,19,-1,21,23,25,27,-1,-1,29,31,33,-1,35,37,39,41,43,45,47,49,51,53,55,57,-1,59,61,63,65,67,-1,-1,-1,69,71,-1,73,75,77,79,-1,81,-1,-1,-1,-1,-1,-1,-1,-1,-1,-1,-1,-1,-1,-1,-1,-1,-1,-1,-1,-1,-1,-1,-1,-1,-1,-1,-1,-1,-1,-1,-1,-1],"loss_changes":[2.5971326E2,1.6131638E1,7.9362305E1,1.4792881E1,9.712997E0,1.6114357E1,1.4435211E2,1.3809771E1,1.542461E1,1.584939E1,0E0,1.2442261E1,2.3632055E1,1.661982E1,6.2509556E1,0E0,0E0,1.3365175E1,8.352917E0,1.04058E1,0E0,1.4987836E1,1.146521E1,2.346003E1,1.8813545E1,1.7785912E1,1.422451E1,3.8990814E1,2.7397905E1,1.1201412E1,9.221033E0,9.171829E0,3.4122717E0,0E0,4.3856983E0,8.018421E0,1.1458128E1,1.4304722E1,8.976212E0,0E0,0E0,0E0,1.5012249E1,1.3555893E1,0E0,1.160141E1,1.2601133E1,3.3273888E1,5.102919E1,0E0,2.5146378E1,0E0,0E0,0E0,0E0,0E0,0E0,0E0,0E0,0E0,0E0,0E0,0E0,0E0,0E0,0E0,0E0,0E0,0E0,0E0,0E0,0E0,0E0,0E0,0E0,0E0,0E0,0E0,0E0,0E0,0E0,0E0,0E0],"parents":[2147483647,0,0,1,1,2,2,3,3,4,4,5,5,6,6,7,7,8,8,9,9,11,11,12,12,13,13,14,14,17,17,18,18,19,19,21,21,22,22,23,23,24,24,25,25,26,26,27,27,28,28,29,29,30,30,31,31,32,32,34,34,35,35,36,36,37,37,38,38,42,42,43,43,45,45,46,46,47,47,48,48,50,50],"right_children":[2,4,6,8,10,12,14,16,18,20,-1,22,24,26,28,-1,-1,30,32,34,-1,36,38,40,42,44,46,48,50,52,54,56,58,-1,60,62,64,66,68,-1,-1,-1,70,72,-1,74,76,78,80,-1,82,-1,-1,-1,-1,-1,-1,-1,-1,-1,-1,-1,-1,-1,-1,-1,-1,-1,-1,-1,-1,-1,-1,-1,-1,-1,-1,-1,-1,-1,-1,-1,-1],"split_conditions":[2.3E-1,6.519355E1,6.708805E1,-2.1915E0,1E0,6.83E-1,8.4E-1,8.492857E-1,-5.021344E-1,-9.391223E-1,-6.804311E-2,-9.615236E-1,4.5E-1,3.9708092E0,2.06E0,-6.089995E-2,1.04703546E-1,1.0541682E3,6.492698E1,1.3158501E1,-6.611689E-2,1E-1,1E0,-2.7914999E0,3.667349E1,1.014568E3,7E-1,7.32E-1,1.0217498E3,1.0495713E0,6.0561543E1,1.9E-1,1.1908501E1,-5.933332E-2,1.016082E3,1.7698677E1,1.5126983E1,2.36E-1,4.338783E1,9.977068E-2,-7.008142E-2,-7.3030196E-2,1.016082E3,1.0117887E3,-6.615243E-2,7.737171E1,4.435483E2,2.844E1,1.00044965E3,-6.920215E-2,1.02297125E3,8.885922E-2,-6.667939E-2,-1.6256081E-2,8.3379894E-2,-6.815686E-2,-2.973165E-3,9.5092855E-2,-4.524427E-2,-4.4001143E-2,1.06505714E-1,-6.8367E-2,4.9973313E-2,9.428152E-2,-5.928577E-2,-4.3074783E-2,4.6530135E-2,7.5927295E-2,4.573461E-2,1.5646366E-2,5.257556E-2,-6.2090617E-2,8.852402E-2,-2.9317528E-2,-6.900319E-2,2.0991292E-2,-4.2135127E-2,-2.878618E-2,3.0530084E-2,-5.705848E-2,3.9953645E-2,6.98957E-2,-3.3182085E-2],"split_indices":[17,1,1,2,5,18,17,9,10,10,0,9,17,13,17,0,0,22,1,0,0,3,5,2,1,4,17,18,4,6,1,17,0,0,4,6,13,18,1,0,0,0,4,4,0,1,22,8,4,0,4,0,0,0,0,0,0,0,0,0,0,0,0,0,0,0,0,0,0,0,0,0,0,0,0,0,0,0,0,0,0,0,0],"split_type":[0,0,0,0,0,0,0,0,0,0,0,0,0,0,0,0,0,0,0,0,0,0,0,0,0,0,0,0,0,0,0,0,0,0,0,0,0,0,0,0,0,0,0,0,0,0,0,0,0,0,0,0,0,0,0,0,0,0,0,0,0,0,0,0,0,0,0,0,0,0,0,0,0,0,0,0,0,0,0,0,0,0,0],"sum_hessian":[4.00865E3,7.672662E2,3.2413838E3,2.7261264E2,4.9465353E2,1.0805758E3,2.1608079E3,2.0287113E1,2.5232553E2,5.223931E1,4.4241425E2,5.65917E2,5.146588E2,5.605621E2,1.6002457E3,6.952818E0,1.3334295E1,7.084078E1,1.8148476E2,2.0930012E1,3.13093E1,5.670074E1,5.0921625E2,5.400082E1,4.60658E2,5.026168E1,5.103004E2,1.3903169E3,2.0992892E2,3.4229053E1,3.6611725E1,1.7527785E2,6.2069116E0,6.088944E0,1.4841067E1,3.1857712E1,2.484303E1,7.581153E1,4.3340472E2,8.95899E0,4.504183E1,1.6549728E1,4.4410828E2,3.2534874E1,1.7726809E1,3.7290982E2,1.373906E2,3.8291663E2,1.0074002E3,1.0784874E2,1.0208018E2,4.561903E0,2.966715E1,1.557058E1,2.1041147E1,1.4998116E2,2.5296694E1,4.365504E0,1.841408E0,1.68324E0,1.3157827E1,2.5327011E1,6.5307007E0,1.9201654E1,5.641375E0,2.671409E1,4.909744E1,1.6226903E2,2.711357E2,2.39244E2,2.0486426E2,6.927795E0,2.5607079E1,1.0445361E2,2.684562E2,4.782618E1,8.9564415E1,2.1670538E2,1.6621123E2,5.6638077E1,9.5076215E2,3.5393597E1,6.668658E1],"tree_param":{"num_deleted":"0","num_feature":"23","num_nodes":"83","size_leaf_vector":"1"}},{"base_weights":[1.8724642E-3,-1.2484526E-1,9.676194E-2,-2.0191982E-1,7.760375E-2,1.9797033E-1,-5.9209917E-2,-3.8345814E-1,-1.6602023E-1,1.3053699E-1,-3.7815186E-1,3.1766692E-1,4.2583954E-2,-1.3795911E-1,1.4723608E-1,1.4352313E-1,-4.8767483E-1,-1.0972039E-1,-2.9957464E-1,7.098596E-1,9.299888E-2,-6.627674E-2,-1.1318051E-1,-4.3677557E-1,3.4526622E-1,4.4174024E-1,-1.742588E-2,-5.026386E-1,-6.239915E-2,9.962909E-1,9.278932E-2,-6.528612E-2,4.955019E-1,-1.7270128E-1,-5.638334E-1,-2.0849033E-1,3.2479905E-2,-4.1457492E-1,8.995039E-2,1.0145673E0,-3.2597947E-1,1.13348715E-1,7.247142E-2,-4.3112025E-1,3.547568E-1,-5.552878E-1,3.455851E-1,3.476021E-2,4.0863028E-1,-2.0799994E-1,5.933679E-1,-5.496968E-2,6.109854E-1,-6.027966E-1,-8.806163E-2,5.8745265E-2,-2.6232713E-1,1.0702583E0,2.6123712E-2,-2.1686275E-1,2.2246003E-1,7.609401E-2,-3.2906514E-2,1.3096872E-2,-6.559505E-2,-5.9721153E-2,-1.88944E-2,-2.8829519E-2,9.245371E-3,4.1982427E-2,-4.9474216E-3,2.7366674E-2,-4.6422046E-2,-2.2645866E-2,3.731025E-2,1.1053965E-1,1.4430177E-2,4.8762243E-2,-5.887139E-2,-3.3449195E-2,1.4017366E-2,-6.5249756E-2,5.301025E-2,-5.1442366E-2,7.026131E-2,-6.288143E-2,3.683574E-2,8.0624536E-2,-4.2193007E-2,-1.893915E-2,5.8745153E-2,3.4476105E-2,7.6901175E-2,8.444186E-2,-4.1453164E-2,-5.9826132E-2,7.090523E-2,3.444131E-2,-1.2205758E-2,-5.595048E-2,7.596359E-2,-6.434112E-2,6.662338E-2,4.0505677E-2,-6.590986E-2,3.293692E-2,-1.3530186E-2,6.426635E-2,-3.4422345E-2,1.12151735E-1,3.626464E-2,8.249746E-2,-3.2176264E-2,6.573936E-2,3.9676554E-3],"categories":[],"categories_nodes":[],"categories_segments":[],"categories_sizes":[],"default_left":[0,0,0,0,0,0,0,0,0,0,0,0,0,0,0,0,0,0,0,0,0,0,0,0,0,0,0,0,0,0,0,0,0,0,0,0,0,0,0,0,0,0,0,0,0,0,0,0,0,0,0,0,0,0,0,0,0,0,0,0,0,0,0,0,0,0,0,0,0,0,0,0,0,0,0,0,0,0,0,0,0,0,0,0,0,0,0,0,0,0,0,0,0,0,0,0,0,0,0,0,0,0,0,0,0,0,0,0,0,0,0,0,0,0,0],"id":11,"left_children":[1,3,5,7,9,11,13,15,17,19,21,23,25,27,29,31,33,35,37,39,41,-1,43,45,47,49,51,53,55,57,59,-1,61,63,65,67,69,71,73,75,77,-1,79,81,83,85,87,89,91,93,95,97,99,101,103,105,107,109,-1,111,113,-1,-1,-1,-1,-1,-1,-1,-1,-1,-1,-1,-1,-1,-1,-1,-1,-1,-1,-1,-1,-1,-1,-1,-1,-1,-1,-1,-1,-1,-1,-1,-1,-1,-1,-1,-1,-1,-1,-1,-1,-1,-1,-1,-1,-1,-1,-1,-1,-1,-1,-1,-1,-1,-1],"loss_changes":[4.846339E1,2.6944714E1,3.6392548E1,8.08424E0,1.1546932E1,2.5987152E1,1.4777707E1,1.1364445E1,7.828888E0,9.235928E0,3.6844058E0,1.6589905E1,1.46058235E1,1.808894E1,1.1516856E1,1.0058022E1,4.0267334E0,1.0359333E1,1.3900534E1,8.498789E0,8.522419E0,0E0,4.1731243E0,2.816236E0,1.4981995E1,7.974139E0,1.2555623E1,4.627613E0,1.3236619E1,5.3763676E-1,9.568434E0,0E0,5.6460195E0,5.209985E0,1.6140556E0,1.0476488E1,9.638975E0,8.297157E0,6.478084E0,1.4403477E0,1.7062516E0,0E0,1.0961368E1,3.8657086E0,3.8326225E0,1.9270115E0,1.8745992E0,1.6250185E1,1.4303154E1,3.7882538E0,9.366644E0,1.3485783E1,5.6455746E0,5.0992928E0,6.773162E0,1.7937468E1,1.55E1,7.6919556E-2,0E0,7.9690485E0,1.3298718E1,0E0,0E0,0E0,0E0,0E0,0E0,0E0,0E0,0E0,0E0,0E0,0E0,0E0,0E0,0E0,0E0,0E0,0E0,0E0,0E0,0E0,0E0,0E0,0E0,0E0,0E0,0E0,0E0,0E0,0E0,0E0,0E0,0E0,0E0,0E0,0E0,0E0,0E0,0E0,0E0,0E0,0E0,0E0,0E0,0E0,0E0,0E0,0E0,0E0,0E0,0E0,0E0,0E0,0E0],"parents":[2147483647,0,0,1,1,2,2,3,3,4,4,5,5,6,6,7,7,8,8,9,9,10,10,11,11,12,12,13,13,14,14,15,15,16,16,17,17,18,18,19,19,20,20,22,22,23,23,24,24,25,25,26,26,27,27,28,28,29,29,30,30,32,32,33,33,34,34,35,35,36,36,37,37,38,38,39,39,40,40,42,42,43,43,44,44,45,45,46,46,47,47,48,48,49,49,50,50,51,51,52,52,53,53,54,54,55,55,56,56,57,57,59,59,60,60],"right_children":[2,4,6,8,10,12,14,16,18,20,22,24,26,28,30,32,34,36,38,40,42,-1,44,46,48,50,52,54,56,58,60,-1,62,64,66,68,70,72,74,76,78,-1,80,82,84,86,88,90,92,94,96,98,100,102,104,106,108,110,-1,112,114,-1,-1,-1,-1,-1,-1,-1,-1,-1,-1,-1,-1,-1,-1,-1,-1,-1,-1,-1,-1,-1,-1,-1,-1,-1,-1,-1,-1,-1,-1,-1,-1,-1,-1,-1,-1,-1,-1,-1,-1,-1,-1,-1,-1,-1,-1,-1,-1,-1,-1,-1,-1,-1,-1],"split_conditions":[7.6E1,2.988E1,1.08585005E1,1.224E1,1.18085E1,1.49E0,1.6368418E1,2.1068459E0,8.9585E0,1.1394745E1,4.09E-1,-4E-3,-9.780365E-1,7E-2,1.6502378E1,1.01698425E3,-8.6662316E-1,1.031E0,1.01546027E3,5.3E1,-3.5915E0,-6.627674E-2,3.236664E2,1.9172323E1,4E-2,8.2307625E1,1.54E0,1.549E0,2.9000908E-1,1.321E0,7.4160913E2,-6.528612E-2,2.715074E2,7.1085E0,2.13E0,5.2085E0,1.124E0,-9.941446E-1,2.0880001E1,2.3810216E2,1.0121154E3,1.13348715E-1,2.0507553E2,6.8E1,1.1E-1,8.016265E-1,2.1256008E1,1.713E0,1.0267793E3,-6.3E-2,4.5519806E1,1.0047554E3,1.00091315E3,1.0247815E3,1.667E0,7.098449E1,4.1325405E1,2.08085E1,2.6123712E-2,1.6635155E1,8.1085005E0,7.609401E-2,-3.2906514E-2,1.3096872E-2,-6.559505E-2,-5.9721153E-2,-1.88944E-2,-2.8829519E-2,9.245371E-3,4.1982427E-2,-4.9474216E-3,2.7366674E-2,-4.6422046E-2,-2.2645866E-2,3.731025E-2,1.1053965E-1,1.4430177E-2,4.8762243E-2,-5.887139E-2,-3.3449195E-2,1.4017366E-2,-6.5249756E-2,5.301025E-2,-5.1442366E-2,7.026131E-2,-6.288143E-2,3.683574E-2,8.0624536E-2,-4.2193007E-2,-1.893915E-2,5.8745153E-2,3.4476105E-2,7.6901175E-2,8.444186E-2,-4.1453164E-2,-5.9826132E-2,7.090523E-2,3.444131E-2,-1.2205758E-2,-5.595048E-2,7.596359E-2,-6.434112E-2,6.662338E-2,4.0505677E-2,-6.590986E-2,3.293692E-2,-1.3530186E-2,6.426635E-2,-3.4422345E-2,1.12151735E-1,3.626464E-2,8.249746E-2,-3.2176264E-2,6.573936E-2,3.9676554E-3],"split_indices":[5,8,0,8,2,17,12,6,2,11,18,18,9,17,12,4,10,18,4,5,0,0,21,6,17,1,18,18,10,18,22,0,7,0,17,2,18,10,16,21,4,0,22,5,17,9,6,18,4,18,22,4,4,4,18,1,7,0,0,6,2,0,0,0,0,0,0,0,0,0,0,0,0,0,0,0,0,0,0,0,0,0,0,0,0,0,0,0,0,0,0,0,0,0,0,0,0,0,0,0,0,0,0,0,0,0,0,0,0,0,0,0,0,0,0],"split_type":[0,0,0,0,0,0,0,0,0,0,0,0,0,0,0,0,0,0,0,0,0,0,0,0,0,0,0,0,0,0,0,0,0,0,0,0,0,0,0,0,0,0,0,0,0,0,0,0,0,0,0,0,0,0,0,0,0,0,0,0,0,0,0,0,0,0,0,0,0,0,0,0,0,0,0,0,0,0,0,0,0,0,0,0,0,0,0,0,0,0,0,0,0,0,0,0,0,0,0,0,0,0,0,0,0,0,0,0,0,0,0,0,0,0,0],"sum_hessian":[4.0284902E3,1.7248148E3,2.3036755E3,1.2492241E3,4.755908E2,1.3969446E3,9.067309E2,2.0465192E2,1.0445721E3,4.26741E2,4.884978E1,7.885034E2,6.084411E2,6.56601E2,2.501299E2,3.372768E1,1.7092424E2,7.3609357E2,3.0847858E2,2.4878754E1,4.0186224E2,2.282805E1,2.602173E1,2.7304108E1,7.6119934E2,7.868769E1,5.297534E2,1.11724815E2,5.448762E2,1.4030872E1,2.3609903E2,1.00756855E1,2.3651995E1,3.3917446E1,1.3700679E2,4.341052E2,3.0198837E2,2.3811508E2,7.036351E1,1.9239656E1,5.6390977E0,6.7258673E0,3.9513638E2,1.5541051E1,1.0480679E1,2.396424E1,3.3398685E0,1.2927167E2,6.319277E2,1.48182335E1,6.3869457E1,5.007492E2,2.9004232E1,8.961954E1,2.2105278E1,3.397277E2,2.0514851E2,1.2333722E1,1.6971503E0,6.9488625E1,1.666104E2,1.795063E1,5.701363E0,2.1276466E1,1.264098E1,1.2526117E2,1.1745621E1,3.431501E2,9.095511E1,5.201662E1,2.4997174E2,1.5716939E1,2.2239813E2,3.332482E1,3.703869E1,1.717674E1,2.0629146E0,1.1675693E0,4.4715285E0,5.5796818E1,3.3933957E2,1.2892894E1,2.6481574E0,2.858749E0,7.62193E0,2.2492899E1,1.4713385E0,2.0556262E0,1.2842424E0,9.243905E1,3.683262E1,5.384556E2,9.347205E1,1.9242601E0,1.2893973E1,5.2826853E0,5.8586773E1,7.1423325E1,4.2932587E2,2.9569542E0,2.6047277E1,8.731797E1,2.301568E0,1.20178995E1,1.0087379E1,1.4157942E2,1.9814825E2,1.645593E1,1.8869258E2,1.0955199E1,1.3785231E0,5.728665E0,6.3759956E1,4.853196E1,1.18078445E2],"tree_param":{"num_deleted":"0","num_feature":"23","num_nodes":"115","size_leaf_vector":"1"}},{"base_weights":[-4.9170776E-4,5.630118E-1,-1.23105064E-1,3.7450862E-1,6.774583E-1,-1.4753266E-1,5.5580485E-1,8.2613575E-1,2.1205813E-1,8.839029E-1,4.7965455E-1,-1.7701349E-1,2.9303437E-1,7.4979293E-1,2.1923294E-2,9.926854E-2,5.523219E-1,7.1780264E-1,1.08692765E-1,-7.1064783E-3,9.088787E-1,-1.9063887E-1,5.62286E-1,-3.1368837E-1,-1.08605735E-1,1.9637725E-1,1.0406412E0,8.346056E-1,-4.6245664E-2,4.109673E-1,-5.577965E-1,1.1565193E-1,7.264878E-1,-2.0716442E-2,8.26541E-1,5.5633855E-1,-3.9380353E-2,7.070995E-2,-3.225328E-1,9.215124E-1,1.2098603E-1,6.586262E-2,-2.6820466E-1,4.4062874E-1,8.7304825E-1,1.1288535E-1,-3.4702167E-1,1.1166587E-1,-2.1127798E-1,4.662845E-1,-3.718E-2,1.1186435E-1,-1.0640364E-2,6.608832E-1,1.0010992E0,5.127193E-1,-5.6374814E-2,-2.3417467E-1,7.902445E-1,-3.3661404E-3,-6.1022382E-2,4.5991357E-2,-4.8547026E-2,-2.0849133E-2,7.903402E-2,-4.495634E-2,6.742148E-2,3.4589138E-2,9.271722E-2,-2.2853402E-2,6.918896E-2,-1.1776781E-2,6.73616E-2,3.74755E-3,-4.6716105E-2,8.820375E-3,9.293899E-2,7.3174834E-2,-4.8959907E-2,2.1882435E-2,-3.6224667E-2,1.4551823E-3,5.7636768E-2,-1.8092236E-2,9.3076274E-2,-1.3208485E-2,9.5393874E-2,2.5309518E-2,-3.7700515E-2,3.0702183E-2,1.09106615E-4,-4.3154415E-3,-3.0201409E-2,2.534221E-2,1.0225427E-1,6.827997E-2,-1.6159778E-2,3.1663656E-2,1.0208805E-1,-2.3442214E-2,1.0478132E-1,8.234019E-2,-2.5138935E-2,-5.350697E-2,6.623789E-2,8.9569114E-2,-1.741605E-2],"categories":[],"categories_nodes":[],"categories_segments":[],"categories_sizes":[],"default_left":[0,0,0,0,0,0,0,0,0,0,0,0,0,0,0,0,0,0,0,0,0,0,0,0,0,0,0,0,0,0,0,0,0,0,0,0,0,0,0,0,0,0,0,0,0,0,0,0,0,0,0,0,0,0,0,0,0,0,0,0,0,0,0,0,0,0,0,0,0,0,0,0,0,0,0,0,0,0,0,0,0,0,0,0,0,0,0,0,0,0,0,0,0,0,0,0,0,0,0,0,0,0,0,0,0,0,0],"id":12,"left_children":[1,3,5,7,9,11,13,15,17,19,21,23,25,27,29,-1,31,33,35,37,39,41,43,45,47,49,51,53,55,57,59,61,63,65,67,69,71,-1,73,75,77,-1,79,81,83,85,87,89,91,93,95,-1,-1,97,99,101,-1,103,105,-1,-1,-1,-1,-1,-1,-1,-1,-1,-1,-1,-1,-1,-1,-1,-1,-1,-1,-1,-1,-1,-1,-1,-1,-1,-1,-1,-1,-1,-1,-1,-1,-1,-1,-1,-1,-1,-1,-1,-1,-1,-1,-1,-1,-1,-1,-1,-1],"loss_changes":[2.7497742E2,1.5089737E1,5.428876E1,1.9701088E1,1.7596832E1,4.1041092E1,1.1762318E1,2.704342E0,1.04082155E1,4.785385E0,1.27108E1,2.7627289E1,1.412571E1,5.6685944E0,7.2978086E0,0E0,2.138976E0,2.7364044E0,1.1139778E1,1.770705E0,1.967926E0,1.8709385E0,7.283737E0,1.4063919E1,4.464954E1,1.11649475E1,2.1295624E0,1.519619E0,2.885692E0,4.915037E0,3.3697367E-1,2.1940935E0,1.4009476E0,1.8889886E0,1.108118E0,4.600704E0,7.175826E0,0E0,3.005795E-1,1.2666779E0,2.0170085E0,0E0,1.1912454E0,8.538921E0,3.5776634E0,1.5010273E1,1.656115E1,1.3565216E1,2.0523525E1,9.463068E0,8.685542E0,0E0,0E0,4.6150265E0,2.3560371E0,1.3557898E0,0E0,2.4932334E0,1.4172311E0,0E0,0E0,0E0,0E0,0E0,0E0,0E0,0E0,0E0,0E0,0E0,0E0,0E0,0E0,0E0,0E0,0E0,0E0,0E0,0E0,0E0,0E0,0E0,0E0,0E0,0E0,0E0,0E0,0E0,0E0,0E0,0E0,0E0,0E0,0E0,0E0,0E0,0E0,0E0,0E0,0E0,0E0,0E0,0E0,0E0,0E0,0E0,0E0],"parents":[2147483647,0,0,1,1,2,2,3,3,4,4,5,5,6,6,7,7,8,8,9,9,10,10,11,11,12,12,13,13,14,14,16,16,17,17,18,18,19,19,20,20,21,21,22,22,23,23,24,24,25,25,26,26,27,27,28,28,29,29,30,30,31,31,32,32,33,33,34,34,35,35,36,36,38,38,39,39,40,40,42,42,43,43,44,44,45,45,46,46,47,47,48,48,49,49,50,50,53,53,54,54,55,55,57,57,58,58],"right_children":[2,4,6,8,10,12,14,16,18,20,22,24,26,28,30,-1,32,34,36,38,40,42,44,46,48,50,52,54,56,58,60,62,64,66,68,70,72,-1,74,76,78,-1,80,82,84,86,88,90,92,94,96,-1,-1,98,100,102,-1,104,106,-1,-1,-1,-1,-1,-1,-1,-1,-1,-1,-1,-1,-1,-1,-1,-1,-1,-1,-1,-1,-1,-1,-1,-1,-1,-1,-1,-1,-1,-1,-1,-1,-1,-1,-1,-1,-1,-1,-1,-1,-1,-1,-1,-1,-1,-1,-1,-1],"split_conditions":[1.1E-1,2E-2,2.64E0,9.81E-1,4E-2,1.3054155E3,1.02139264E3,7.54E-1,1.872E1,1.3585E0,6.8085E0,6.6507835E1,4.472126E-1,3.744E1,4.4912003E1,9.926854E-2,7.722463E1,2.3469126E0,1.0079637E3,8.45E-1,5.7239998E1,8.476285E0,9.9E1,1.6199999E1,8.7E-1,6.1E-1,9.722612E1,4.011747E2,1.9961797E2,1.0219429E3,5.7534394E0,7.426387E1,9.92082E2,1.273E0,2.2003494E2,1.05E0,8.34958E-1,7.070995E-2,-5.8252025E-1,-9.99635E-1,9.408501E0,6.586262E-2,6.57E-1,-5.021344E-1,-9.9986994E-1,1.0202415E3,1.7E-1,8.5E1,8.12E-1,1.047E0,1.00428046E3,1.1186435E-1,-1.0640364E-2,1.0122393E3,4.338783E1,8.190292E1,-5.6374814E-2,7.54E-1,1.0285487E3,-3.3661404E-3,-6.1022382E-2,4.5991357E-2,-4.8547026E-2,-2.0849133E-2,7.903402E-2,-4.495634E-2,6.742148E-2,3.4589138E-2,9.271722E-2,-2.2853402E-2,6.918896E-2,-1.1776781E-2,6.73616E-2,3.74755E-3,-4.6716105E-2,8.820375E-3,9.293899E-2,7.3174834E-2,-4.8959907E-2,2.1882435E-2,-3.6224667E-2,1.4551823E-3,5.7636768E-2,-1.8092236E-2,9.3076274E-2,-1.3208485E-2,9.5393874E-2,2.5309518E-2,-3.7700515E-2,3.0702183E-2,1.09106615E-4,-4.3154415E-3,-3.0201409E-2,2.534221E-2,1.0225427E-1,6.827997E-2,-1.6159778E-2,3.1663656E-2,1.0208805E-1,-2.3442214E-2,1.0478132E-1,8.234019E-2,-2.5138935E-2,-5.350697E-2,6.623789E-2,8.9569114E-2,-1.741605E-2],"split_indices":[17,17,17,18,17,22,4,18,16,2,0,1,10,14,21,0,1,6,4,18,14,21,5,8,17,17,1,22,7,4,11,1,4,18,22,18,9,0,10,10,0,0,18,10,9,4,17,5,18,18,4,0,0,4,1,1,0,18,4,0,0,0,0,0,0,0,0,0,0,0,0,0,0,0,0,0,0,0,0,0,0,0,0,0,0,0,0,0,0,0,0,0,0,0,0,0,0,0,0,0,0,0,0,0,0,0,0],"split_type":[0,0,0,0,0,0,0,0,0,0,0,0,0,0,0,0,0,0,0,0,0,0,0,0,0,0,0,0,0,0,0,0,0,0,0,0,0,0,0,0,0,0,0,0,0,0,0,0,0,0,0,0,0,0,0,0,0,0,0,0,0,0,0,0,0,0,0,0,0,0,0,0,0,0,0,0,0,0,0,0,0,0,0,0,0,0,0,0,0,0,0,0,0,0,0,0,0,0,0,0,0,0,0,0,0,0,0],"sum_hessian":[3.9778096E3,7.1021747E2,3.267592E3,2.699156E2,4.4030188E2,3.154861E3,1.12731094E2,7.032374E1,1.9959184E2,2.1374797E2,2.2655391E2,2.9575527E3,1.9730841E2,8.2389946E1,3.0341146E1,4.2094185E1,2.8229553E1,3.2861797E1,1.6673004E2,5.847686E0,2.0790028E2,2.4720232E1,2.0183368E2,9.8533093E2,1.9722217E3,1.7583731E2,2.1471102E1,7.441326E1,7.976685E0,1.8330696E1,1.2010449E1,8.523473E0,1.970608E1,4.3214245E0,2.8540375E1,4.075743E1,1.2597262E2,1.4110287E0,4.436657E0,2.0445232E2,3.4479635E0,1.4418848E0,2.3278347E1,1.4678725E2,5.5046432E1,7.124217E1,9.1408875E2,6.269927E2,1.345229E3,8.1108696E1,9.472861E1,2.012716E1,1.343943E0,3.8848007E1,3.5565258E1,3.8391662E0,4.137519E0,6.928334E0,1.1402363E1,1.2414362E0,1.0769013E1,5.5690155E0,2.9544575E0,1.114945E0,1.8591135E1,2.89066E0,1.4307644E0,5.709074E0,2.28313E1,5.9013343E0,3.4856094E1,1.14247025E2,1.1725592E1,1.4838773E0,2.9527798E0,2.028848E0,2.0242346E2,1.624527E0,1.8234365E0,3.5526814E0,1.9725666E1,3.573241E1,1.1105483E2,2.7469711E0,5.229946E1,5.582516E1,1.5417015E1,4.3143047E1,8.7094574E2,2.2597643E2,4.0101624E2,4.7205008E2,8.7317896E2,5.9713722E1,2.1394972E1,1.32965145E1,8.14321E1,2.0819221E1,1.8028786E1,1.1493112E0,3.4415947E1,2.6742373E0,1.1649289E0,5.48926E0,1.4390742E0,1.03427515E1,1.0596108E0],"tree_param":{"num_deleted":"0","num_feature":"23","num_nodes":"107","size_leaf_vector":"1"}},{"base_weights":[-2.415883E-3,-5.072876E-1,1.1254217E-1,-3.124164E-1,-6.1560977E-1,3.167644E-1,9.102589E-3,4.537693E-1,-3.7733734E-1,-2.0622121E-1,-6.641381E-2,-8.061489E-2,3.50231E-1,-4.0808436E-1,1.5122996E-1,-5.94151E-2,9.795459E-2,7.1299E-3,-5.302515E-1,4.2417085E-1,-6.444213E-2,6.0891634E-1,-4.6081182E-1,3.972012E-1,-1.3341596E-2,-1.5337738E-1,-5.224039E-1,2.0204043E-1,-5.2707165E-1,-4.2756522E-1,4.0048155E-1,-6.1648715E-1,-1.24946395E-2,-5.7598032E-2,8.2644475E-1,9.2828375E-1,-6.964509E-2,7.273873E-1,-7.6343425E-2,-7.2037406E-2,4.1680613E-1,-7.4371256E-2,2.3197195E-1,4.957769E-1,-3.1434697E-1,-2.7728823E-1,-6.181371E-1,-1.3415734E-1,2.8304622E-1,-1.9909766E-1,-6.6153586E-2,8.277373E-2,-6.523984E-2,6.0935266E-2,-6.402921E-2,-6.678662E-2,4.9837165E-2,-6.532193E-2,1.12531625E-1,-4.2543706E-2,9.983893E-2,1.0239541E-1,-4.4923868E-2,1.0624559E-1,-5.5042744E-2,1.4004543E-2,4.7840998E-2,-7.030758E-2,3.890904E-2,1.04994476E-1,-6.448595E-2,4.3571502E-2,-4.0877264E-2,-5.5461414E-2,2.8844653E-2,-6.496009E-2,3.598284E-2,-5.2339118E-2,1.895653E-2,3.652857E-2,-1.023168E-2,4.1950338E-2,-6.536493E-2],"categories":[],"categories_nodes":[],"categories_segments":[],"categories_sizes":[],"default_left":[0,0,0,0,0,0,0,0,0,0,0,0,0,0,0,0,0,0,0,0,0,0,0,0,0,0,0,0,0,0,0,0,0,0,0,0,0,0,0,0,0,0,0,0,0,0,0,0,0,0,0,0,0,0,0,0,0,0,0,0,0,0,0,0,0,0,0,0,0,0,0,0,0,0,0,0,0,0,0,0,0,0,0],"id":13,"left_children":[1,3,5,7,9,11,13,15,17,19,-1,21,23,25,27,-1,-1,29,31,33,-1,35,37,39,41,43,45,47,49,51,53,55,57,-1,59,61,-1,63,-1,-1,65,-1,67,69,71,73,75,77,79,81,-1,-1,-1,-1,-1,-1,-1,-1,-1,-1,-1,-1,-1,-1,-1,-1,-1,-1,-1,-1,-1,-1,-1,-1,-1,-1,-1,-1,-1,-1,-1,-1,-1],"loss_changes":[2.3100803E2,1.5390198E1,6.8483986E1,1.3390871E1,9.268677E0,1.4523804E1,1.2772416E2,1.2270374E1,1.4439964E1,1.4533525E1,0E0,2.26895E1,1.7176338E1,1.5858551E1,5.548009E1,0E0,0E0,1.2287427E1,7.836834E0,9.235708E0,0E0,1.3491423E1,2.0572014E1,1.9811005E1,2.095749E1,1.8023037E1,8.684448E0,4.0764385E1,4.818289E0,1.0176773E1,8.588997E0,8.958565E0,1.9766554E1,0E0,3.8554068E0,3.778864E0,0E0,5.64221E0,0E0,0E0,1.4864563E1,0E0,1.314345E1,2.2397945E1,9.925394E0,1.7074821E1,8.559731E0,3.677087E1,3.823867E1,9.853565E0,0E0,0E0,0E0,0E0,0E0,0E0,0E0,0E0,0E0,0E0,0E0,0E0,0E0,0E0,0E0,0E0,0E0,0E0,0E0,0E0,0E0,0E0,0E0,0E0,0E0,0E0,0E0,0E0,0E0,0E0,0E0,0E0,0E0],"parents":[2147483647,0,0,1,1,2,2,3,3,4,4,5,5,6,6,7,7,8,8,9,9,11,11,12,12,13,13,14,14,17,17,18,18,19,19,21,21,22,22,23,23,24,24,25,25,26,26,27,27,28,28,29,29,30,30,31,31,32,32,34,34,35,35,37,37,40,40,42,42,43,43,44,44,45,45,46,46,47,47,48,48,49,49],"right_children":[2,4,6,8,10,12,14,16,18,20,-1,22,24,26,28,-1,-1,30,32,34,-1,36,38,40,42,44,46,48,50,52,54,56,58,-1,60,62,-1,64,-1,-1,66,-1,68,70,72,74,76,78,80,82,-1,-1,-1,-1,-1,-1,-1,-1,-1,-1,-1,-1,-1,-1,-1,-1,-1,-1,-1,-1,-1,-1,-1,-1,-1,-1,-1,-1,-1,-1,-1,-1,-1],"split_conditions":[2.3E-1,6.519355E1,6.708805E1,-2.1915E0,1E0,1.6199999E1,8.4E-1,8.492857E-1,-5.021344E-1,-9.391223E-1,-6.641381E-2,1.1159999E1,4.428E1,7.914737E1,2.39E0,-5.94151E-2,9.795459E-2,1.0541682E3,1.0210699E3,1.3158501E1,-6.444213E-2,1.0180851E3,3.938105E1,1.00091315E3,4.5719997E1,6.2062144E0,3.649503E1,5.6E-1,-1.6415E0,1.0495713E0,1.2E-1,6.492698E1,1.9E-1,-5.7598032E-2,1.016082E3,1.0085E0,-6.964509E-2,2.4482646E0,-7.6343425E-2,-7.2037406E-2,4.3E-1,-7.4371256E-2,3.8496395E1,-9.74008E-1,2.03E-1,3.594624E2,9.9870104E-1,5.6020153E1,1.0232344E3,-2.0601E-1,-6.6153586E-2,8.277373E-2,-6.523984E-2,6.0935266E-2,-6.402921E-2,-6.678662E-2,4.9837165E-2,-6.532193E-2,1.12531625E-1,-4.2543706E-2,9.983893E-2,1.0239541E-1,-4.4923868E-2,1.0624559E-1,-5.5042744E-2,1.4004543E-2,4.7840998E-2,-7.030758E-2,3.890904E-2,1.04994476E-1,-6.448595E-2,4.3571502E-2,-4.0877264E-2,-5.5461414E-2,2.8844653E-2,-6.496009E-2,3.598284E-2,-5.2339118E-2,1.895653E-2,3.652857E-2,-1.023168E-2,4.1950338E-2,-6.536493E-2],"split_indices":[17,1,1,2,5,8,17,9,10,10,0,15,16,1,17,0,0,22,4,0,0,4,1,4,8,13,21,18,2,6,17,1,17,0,4,2,0,11,0,0,17,0,1,9,18,22,9,21,4,10,0,0,0,0,0,0,0,0,0,0,0,0,0,0,0,0,0,0,0,0,0,0,0,0,0,0,0,0,0,0,0,0,0],"split_type":[0,0,0,0,0,0,0,0,0,0,0,0,0,0,0,0,0,0,0,0,0,0,0,0,0,0,0,0,0,0,0,0,0,0,0,0,0,0,0,0,0,0,0,0,0,0,0,0,0,0,0,0,0,0,0,0,0,0,0,0,0,0,0,0,0,0,0,0,0,0,0,0,0,0,0,0,0,0,0,0,0,0,0],"sum_hessian":[3.9782322E3,7.371983E2,3.2410337E3,2.6476712E2,4.724312E2,1.0889808E3,2.152053E3,2.0214104E1,2.4455301E2,5.0622833E1,4.2180835E2,8.447873E1,1.00450214E3,5.4638275E2,1.6056702E3,6.7101417E0,1.35039625E1,6.98599E1,1.7469312E2,2.0772152E1,2.9850681E1,2.9811157E1,5.4667576E1,8.894951E2,1.1500705E2,1.6998756E2,3.7639517E2,1.4944272E3,1.11242966E2,3.3144615E1,3.6715282E1,1.4958768E2,2.5105434E1,5.8344564E0,1.49376955E1,2.418339E1,5.627767E0,1.0812071E1,4.3855503E1,1.4718617E1,8.747765E2,2.8405071E1,8.6601974E1,3.3362827E1,1.3662474E2,1.0681142E2,2.6958374E2,2.9003607E2,1.2043911E3,3.3067673E1,7.817529E1,4.627349E0,2.8517267E1,3.0923763E1,5.791518E0,1.4338081E2,6.2068653E0,1.6333567E1,8.771868E0,1.6258733E0,1.3311822E1,2.2852903E1,1.3304867E0,8.69944E0,2.1126306E0,1.5986087E2,7.1491565E2,1.1958629E1,7.464335E1,2.2507345E1,1.085548E1,1.4872441E1,1.21752304E2,7.168885E1,3.5122566E1,2.6150616E2,8.077592E0,1.3141275E2,1.5862332E2,9.926121E2,2.1177902E2,1.40390215E1,1.9028652E1],"tree_param":{"num_deleted":"0","num_feature":"23","num_nodes":"83","size_leaf_vector":"1"}},{"base_weights":[2.883345E-3,-1.17508955E-1,9.231392E-2,-1.9118057E-1,7.391388E-2,1.862622E-1,-5.4091178E-2,-3.4522188E-1,-1.5113826E-1,1.2334247E-1,-3.638368E-1,3.085003E-1,5.5568155E-2,-1.3495715E-1,1.2979981E-1,1.573282E-1,-4.209963E-1,-1.0420187E-1,-3.2860482E-1,6.6717386E-1,8.789219E-2,-6.4621E-2,-1.07954316E-1,1.4890809E-2,3.740465E-1,4.7566113E-1,5.0704107E-3,-4.8871624E-1,-6.618513E-2,1.9432022E-1,-5.4382503E-1,7.116659E-1,-2.7218613E-1,-2.6264626E-1,-5.604292E-1,8.171169E-2,-1.7588946E-1,-4.7180864E-1,1.2048378E-1,9.4373417E-1,-3.102958E-1,3.3780044E-1,6.12453E-3,-4.1751012E-1,3.3574894E-1,-6.6169016E-2,1.9953564E-1,-3.6446542E-1,3.9584675E-1,-3.655814E-1,5.710051E-1,6.2129285E-2,-3.1156805E-1,-5.9922457E-1,-8.18514E-2,1.12746656E-1,-8.404163E-2,8.387107E-1,1.2683982E-1,-6.185221E-1,5.1560026E-2,-1.4259039E-2,9.613652E-2,8.619496E-2,-4.4617217E-2,-5.950826E-2,-3.1496868E-3,5.377729E-2,-5.914251E-2,2.3031047E-2,-1.878337E-2,-7.23293E-3,-3.2218415E-2,-5.5230644E-2,-2.2726117E-2,-3.1194208E-2,4.702535E-2,1.0261072E-1,1.3951137E-2,4.7617223E-2,-5.725461E-2,-4.8620265E-2,4.337336E-2,5.853461E-2,-4.6715913E-3,-6.379571E-2,5.0394144E-2,-4.9802963E-2,6.544084E-2,5.5999695E-3,8.264675E-2,1.832036E-2,-5.4010212E-2,3.3916246E-2,7.033219E-2,5.493028E-2,-5.9273668E-2,-3.3375554E-2,6.6156805E-2,-3.4925223E-3,4.0075373E-2,5.8627136E-2,-4.8643555E-2,-6.447961E-2,6.4413965E-2,5.1734176E-2,-5.1587045E-2,-3.369068E-3,-4.985204E-2,9.619188E-2,-4.5850866E-2,4.9281265E-3,6.9799274E-2,5.1160354E-2,-7.007523E-2],"categories":[],"categories_nodes":[],"categories_segments":[],"categories_sizes":[],"default_left":[0,0,0,0,0,0,0,0,0,0,0,0,0,0,0,0,0,0,0,0,0,0,0,0,0,0,0,0,0,0,0,0,0,0,0,0,0,0,0,0,0,0,0,0,0,0,0,0,0,0,0,0,0,0,0,0,0,0,0,0,0,0,0,0,0,0,0,0,0,0,0,0,0,0,0,0,0,0,0,0,0,0,0,0,0,0,0,0,0,0,0,0,0,0,0,0,0,0,0,0,0,0,0,0,0,0,0,0,0,0,0,0,0,0,0],"id":14,"left_children":[1,3,5,7,9,11,13,15,17,19,21,23,25,27,29,31,33,35,37,39,41,-1,43,45,47,49,51,53,55,57,59,61,63,65,67,69,71,73,75,77,79,81,83,85,87,-1,89,91,93,95,97,99,101,103,105,-1,107,109,111,113,-1,-1,-1,-1,-1,-1,-1,-1,-1,-1,-1,-1,-1,-1,-1,-1,-1,-1,-1,-1,-1,-1,-1,-1,-1,-1,-1,-1,-1,-1,-1,-1,-1,-1,-1,-1,-1,-1,-1,-1,-1,-1,-1,-1,-1,-1,-1,-1,-1,-1,-1,-1,-1,-1,-1],"loss_changes":[4.321377E1,2.413913E1,3.1685678E1,7.5689735E0,1.0347224E1,2.2396782E1,1.3414854E1,9.743839E0,8.149012E0,8.203844E0,3.4390073E0,1.39418335E1,1.4407324E1,1.5203441E1,1.2087681E1,8.295132E0,4.734741E0,1.0388713E1,1.3241993E1,7.341879E0,8.243197E0,0E0,3.804184E0,1.6785458E1,9.682152E0,6.0541935E0,1.0993002E1,4.526844E0,1.129494E1,1.0865658E1,2.2467127E0,3.364657E0,4.3102846E0,8.081516E0,4.2903633E0,8.747192E0,8.492683E0,2.9386253E0,7.7645726E0,1.219696E0,1.6139326E0,8.072777E0,9.363602E0,3.603935E0,3.3858852E0,0E0,9.446752E0,1.7829678E0,9.799118E0,1.9941264E0,5.616434E0,1.6955215E1,1.4871738E1,4.941292E0,6.221325E0,0E0,1.0807322E1,4.235441E0,1.0135698E1,2.5154934E0,0E0,0E0,0E0,0E0,0E0,0E0,0E0,0E0,0E0,0E0,0E0,0E0,0E0,0E0,0E0,0E0,0E0,0E0,0E0,0E0,0E0,0E0,0E0,0E0,0E0,0E0,0E0,0E0,0E0,0E0,0E0,0E0,0E0,0E0,0E0,0E0,0E0,0E0,0E0,0E0,0E0,0E0,0E0,0E0,0E0,0E0,0E0,0E0,0E0,0E0,0E0,0E0,0E0,0E0,0E0],"parents":[2147483647,0,0,1,1,2,2,3,3,4,4,5,5,6,6,7,7,8,8,9,9,10,10,11,11,12,12,13,13,14,14,15,15,16,16,17,17,18,18,19,19,20,20,22,22,23,23,24,24,25,25,26,26,27,27,28,28,29,29,30,30,31,31,32,32,33,33,34,34,35,35,36,36,37,37,38,38,39,39,40,40,41,41,42,42,43,43,44,44,46,46,47,47,48,48,49,49,50,50,51,51,52,52,53,53,54,54,56,56,57,57,58,58,59,59],"right_children":[2,4,6,8,10,12,14,16,18,20,22,24,26,28,30,32,34,36,38,40,42,-1,44,46,48,50,52,54,56,58,60,62,64,66,68,70,72,74,76,78,80,82,84,86,88,-1,90,92,94,96,98,100,102,104,106,-1,108,110,112,114,-1,-1,-1,-1,-1,-1,-1,-1,-1,-1,-1,-1,-1,-1,-1,-1,-1,-1,-1,-1,-1,-1,-1,-1,-1,-1,-1,-1,-1,-1,-1,-1,-1,-1,-1,-1,-1,-1,-1,-1,-1,-1,-1,-1,-1,-1,-1,-1,-1,-1,-1,-1,-1,-1,-1],"split_conditions":[7.6E1,2.988E1,1.08585005E1,1.4759999E1,1.18085E1,1.38E0,1.6065666E1,2.1068459E0,1.0732208E3,1.1394745E1,4.09E-1,4E-2,-9.842714E-1,7E-2,1.35E0,6.585E-1,2.9370993E1,4.4E-1,1.01546027E3,5.3E1,-9.5838535E-1,-6.4621E-2,3.236664E2,8.84E-1,9E-3,4.5519806E1,3E-1,1.549E0,9.9621295E2,1.9983809E2,1E-1,-2.2858476E2,2.357473E1,3.8584657E0,-9.9901384E-1,3E0,9.743305E0,1.0010803E1,2.0880001E1,2.3810216E2,2.8585E0,3E-2,9.9549677E2,6.8E1,1.1E-1,-6.6169016E-2,1.962E0,2.0590645E2,1.0267793E3,1.0185448E3,1.00044965E3,1.2640539E1,1.00256433E3,1.0247815E3,1.615E0,1.12746656E-1,1.629E0,1.0158397E3,2.2088638E1,1.878001E2,5.1560026E-2,-1.4259039E-2,9.613652E-2,8.619496E-2,-4.4617217E-2,-5.950826E-2,-3.1496868E-3,5.377729E-2,-5.914251E-2,2.3031047E-2,-1.878337E-2,-7.23293E-3,-3.2218415E-2,-5.5230644E-2,-2.2726117E-2,-3.1194208E-2,4.702535E-2,1.0261072E-1,1.3951137E-2,4.7617223E-2,-5.725461E-2,-4.8620265E-2,4.337336E-2,5.853461E-2,-4.6715913E-3,-6.379571E-2,5.0394144E-2,-4.9802963E-2,6.544084E-2,5.5999695E-3,8.264675E-2,1.832036E-2,-5.4010212E-2,3.3916246E-2,7.033219E-2,5.493028E-2,-5.9273668E-2,-3.3375554E-2,6.6156805E-2,-3.4925223E-3,4.0075373E-2,5.8627136E-2,-4.8643555E-2,-6.447961E-2,6.4413965E-2,5.1734176E-2,-5.1587045E-2,-3.369068E-3,-4.985204E-2,9.619188E-2,-4.5850866E-2,4.9281265E-3,6.9799274E-2,5.1160354E-2,-7.007523E-2],"split_indices":[5,8,0,15,2,17,12,6,22,11,18,17,9,17,17,2,21,17,4,5,9,0,21,18,18,22,3,18,4,21,3,22,7,11,10,19,6,12,16,21,2,17,4,5,17,0,18,7,4,4,4,12,4,4,18,0,18,4,13,7,0,0,0,0,0,0,0,0,0,0,0,0,0,0,0,0,0,0,0,0,0,0,0,0,0,0,0,0,0,0,0,0,0,0,0,0,0,0,0,0,0,0,0,0,0,0,0,0,0,0,0,0,0,0,0],"split_type":[0,0,0,0,0,0,0,0,0,0,0,0,0,0,0,0,0,0,0,0,0,0,0,0,0,0,0,0,0,0,0,0,0,0,0,0,0,0,0,0,0,0,0,0,0,0,0,0,0,0,0,0,0,0,0,0,0,0,0,0,0,0,0,0,0,0,0,0,0,0,0,0,0,0,0,0,0,0,0,0,0,0,0,0,0,0,0,0,0,0,0,0,0,0,0,0,0,0,0,0,0,0,0,0,0,0,0,0,0,0,0,0,0,0,0],"sum_hessian":[4.0116233E3,1.7096978E3,2.3019255E3,1.2345615E3,4.7513614E2,1.401993E3,8.9993243E2,2.5313591E2,9.8142566E2,4.275748E2,4.7561348E1,7.2372906E2,6.7826404E2,6.2524664E2,2.7468582E2,3.3025875E1,2.2011003E2,7.7740466E2,2.0402097E2,2.5075752E1,4.0249905E2,2.1885117E1,2.5676233E1,1.3230508E2,5.9142395E2,7.1879105E1,6.0638495E2,1.0077254E2,5.2447406E2,2.5132518E2,2.3360622E1,1.4131124E1,1.889475E1,1.0441384E2,1.1569618E2,2.1630432E2,5.6110034E2,1.5465463E2,4.9366337E1,1.9572515E1,5.503236E0,9.8455666E1,3.040434E2,1.5159222E1,1.0517011E1,2.781199E1,1.0449309E2,1.6507074E1,5.749169E2,7.02872E0,6.485039E1,5.1447864E2,9.190628E1,7.887623E1,2.189631E1,6.814367E0,5.176597E2,2.2740488E1,2.285847E2,2.2210775E1,1.1498471E0,3.293284E0,1.083784E1,1.9871686E0,1.6907583E1,4.217861E1,6.223523E1,2.7270074E0,1.1296918E2,1.395286E2,7.6775734E1,3.2940976E2,2.316906E2,1.1540745E2,3.9247185E1,2.2123209E1,2.7243128E1,1.7503782E1,2.0687346E0,1.1721958E0,4.33104E0,9.842959E0,8.86127E1,2.4575565E1,2.7946783E2,1.2480954E1,2.6782677E0,2.7524035E0,7.764607E0,8.591271E1,1.8580376E1,3.9978688E0,1.2509205E1,4.8720227E2,8.7714615E1,1.1159534E0,5.912766E0,5.656299E0,5.9194088E1,4.0056732E2,1.1391135E2,1.4598597E1,7.7307686E1,7.655187E1,2.3243575E0,9.117289E0,1.2779022E1,4.625503E2,5.510941E1,2.100403E1,1.7364572E0,2.02212E2,2.6372686E1,1.1523194E0,2.1058456E1],"tree_param":{"num_deleted":"0","num_feature":"23","num_nodes":"115","size_leaf_vector":"1"}},{"base_weights":[-7.027327E-4,5.199607E-1,-1.1534897E-1,3.4368047E-1,6.268934E-1,-1.3842691E-1,5.194249E-1,7.648601E-1,1.9272663E-1,8.216808E-1,4.4164455E-1,-1.7237626E-1,2.0231815E-1,6.983133E-1,1.9632751E-2,8.105635E-1,1.8170916E-2,6.651924E-1,9.610879E-2,-1.4285475E-2,8.4519583E-1,-1.8393625E-1,5.177794E-1,-3.8277808E-1,-1.3206816E-1,1.5435936E-1,1.0544753E-1,7.766387E-1,-4.768806E-2,3.8628507E-1,-5.4185E-1,-1.2597483E-1,8.507438E-1,6.417768E-2,-4.0265594E-2,-2.8705666E-2,7.671752E-1,5.11302E-1,-4.2180397E-2,6.67532E-2,-3.1802374E-1,8.6164004E-1,2.6521847E-1,6.312252E-2,-2.5918162E-1,4.1824636E-1,8.6919194E-1,1.238263E-1,-3.9695343E-1,9.669616E-2,-2.0085253E-1,4.0726268E-1,-2.4219185E-2,9.6209526E-2,6.279022E-1,7.3290616E-2,-3.9227343E-1,-2.2676367E-1,7.364783E-1,-2.6281239E-3,-5.950079E-1,-2.4302049E-2,2.4275817E-3,8.948325E-2,4.144805E-2,-4.4344597E-2,6.392881E-2,3.2355927E-2,8.697737E-2,-2.2850612E-2,6.384517E-2,-1.1620746E-2,6.1977934E-2,3.8554203E-3,-4.6177324E-2,8.205104E-3,8.691432E-2,7.3594116E-2,-1.045509E-2,2.0632116E-2,-3.5048626E-2,2.099458E-2,6.550407E-2,9.4627485E-2,-5.379014E-2,1.3401783E-2,-4.2481866E-2,3.243804E-2,-7.2048635E-5,-1.5632916E-2,-3.6042273E-2,5.5826675E-2,-7.861744E-3,9.166765E-2,-1.0755952E-2,2.2569602E-2,8.549983E-2,3.2521565E-3,-5.5080384E-2,-5.2181114E-2,6.299529E-2,8.6277895E-2,-7.349266E-3,-6.207351E-2,-1.7705938E-2],"categories":[],"categories_nodes":[],"categories_segments":[],"categories_sizes":[],"default_left":[0,0,0,0,0,0,0,0,0,0,0,0,0,0,0,0,0,0,0,0,0,0,0,0,0,0,0,0,0,0,0,0,0,0,0,0,0,0,0,0,0,0,0,0,0,0,0,0,0,0,0,0,0,0,0,0,0,0,0,0,0,0,0,0,0,0,0,0,0,0,0,0,0,0,0,0,0,0,0,0,0,0,0,0,0,0,0,0,0,0,0,0,0,0,0,0,0,0,0,0,0,0,0,0,0],"id":15,"left_children":[1,3,5,7,9,11,13,15,17,19,21,23,25,27,29,31,33,35,37,39,41,43,45,47,49,51,-1,53,55,57,59,61,63,-1,-1,65,67,69,71,-1,73,75,77,-1,79,81,83,-1,85,87,89,91,93,-1,95,-1,97,99,101,-1,103,-1,-1,-1,-1,-1,-1,-1,-1,-1,-1,-1,-1,-1,-1,-1,-1,-1,-1,-1,-1,-1,-1,-1,-1,-1,-1,-1,-1,-1,-1,-1,-1,-1,-1,-1,-1,-1,-1,-1,-1,-1,-1,-1,-1],"loss_changes":[2.3545825E2,1.3202469E1,4.7428898E1,1.7080906E1,1.5580719E1,3.6128437E1,1.0144413E1,2.4136505E0,9.103121E0,4.2230988E0,1.0984543E1,2.4017754E1,1.1409463E1,4.9242134E0,6.586367E0,2.6295815E0,1.6039464E0,2.4227867E0,9.6613865E0,1.629692E0,1.7587738E0,1.7303858E0,6.7748184E0,1.0964058E1,3.752001E1,1.2169706E1,0E0,1.485424E0,2.6785932E0,4.3154116E0,3.3114147E-1,6.971203E-2,8.6785126E-1,0E0,0E0,1.7548952E0,1.0664558E0,4.0989876E0,6.2889085E0,0E0,2.952227E-1,1.1113281E0,1.3283907E0,0E0,1.0963739E0,7.802107E0,5.2942314E0,0E0,6.7527237E0,1.2234836E1,1.2963554E1,8.223776E0,1.2547258E1,0E0,3.9096298E0,0E0,4.770857E-1,2.2977235E0,1.3455853E0,0E0,1.2934208E-2,0E0,0E0,0E0,0E0,0E0,0E0,0E0,0E0,0E0,0E0,0E0,0E0,0E0,0E0,0E0,0E0,